/*!
 * The following copyright notice may not be removed under any circumstances.
 * 
 * Copyright:
 * Copyright: Kulbir S. Thind, 3724 Hacienda Street, San Mateo, CA 94403, U.S.A.
 */
Cufon.registerFont({"w":10,"face":{"font-family":"GurbaniHindi","font-weight":400,"font-stretch":"normal","units-per-em":"1008","panose-1":"0 0 4 0 0 0 0 0 0 0","ascent":"806","descent":"-202","bbox":"-714 -920.078 1445 402","underline-thickness":"50.4","underline-position":"-277.2","unicode-range":"U+0020-U+00FF"},"glyphs":{" ":{"w":352},"!":{"d":"134,-590v0,-55,11,-83,59,-85v52,-2,59,33,57,87v-6,144,-29,290,-58,419r-25,0v-18,-129,-34,-300,-33,-421xm115,-52v0,-38,29,-68,65,-68v35,0,69,31,69,68v0,36,-33,62,-69,62v-36,0,-65,-25,-65,-62","w":344},"\"":{"d":"301,-700v25,0,48,19,48,43v0,5,-13,75,-37,210r-23,0v-24,-113,-36,-182,-36,-210v0,-24,22,-43,48,-43xm109,-700v24,0,47,19,46,43v0,21,-11,90,-35,210r-24,0v-24,-132,-36,-201,-36,-210v-1,-24,24,-43,49,-43","w":428},"#":{"d":"34,-262v0,55,75,77,129,63v55,-14,81,-61,115,-97r0,-20v-39,-13,-88,-37,-132,-37v-60,-1,-112,40,-112,91xm-1,-297v2,-81,51,-128,137,-128v68,0,106,36,142,68r0,-166r-289,0r-30,-81r598,0r41,81r-235,0r0,166v47,-33,99,-41,145,-7r0,55v-49,9,-130,29,-145,48r0,261r-85,-40r0,-165v-32,36,-62,78,-128,76v-80,-2,-154,-78,-151,-168","w":541},"$":{"d":"375,-75v83,0,161,-24,232,-41r20,54v-171,27,-297,34,-424,-31v-21,-11,-198,-91,-193,-147v5,-54,70,-69,104,-22v12,-24,74,-197,57,-261r-186,0r-30,-81r764,0r40,81r-541,0v9,57,13,107,13,150v0,110,-31,150,-90,205v19,19,196,93,234,93xm300,-300v3,-80,48,-133,133,-133v78,0,149,33,212,100r0,15v-52,-16,-135,-42,-190,-42v-69,0,-123,42,-123,98v0,58,83,83,141,66v59,-17,95,-62,137,-96r71,22v-44,43,-151,138,-229,135v-85,-2,-156,-72,-152,-165","w":698},"%":{"d":"-1,-432v0,-26,17,-66,27,-91r-39,0r-40,-82r429,1r40,81r-301,0v-16,22,-44,49,-45,80v14,54,14,74,85,68r49,-1r57,76v-19,2,-47,1,-83,1v-57,0,-108,39,-108,100v0,32,18,48,55,48v97,0,195,-56,233,-129r0,112v-57,43,-98,69,-183,74v-89,5,-177,-76,-171,-165v2,-29,29,-60,83,-92v-40,-19,-88,-32,-88,-81","w":352},"&":{"d":"169,-155v68,0,99,-26,111,-86r0,-282r-193,0r0,225v-2,98,5,143,82,143xm2,-523r-28,0r-41,-81r552,0r40,81r-160,0r0,276v-20,110,-50,132,-166,144v-112,11,-198,-96,-197,-206r0,-214","w":466},"'":{"d":"100,-700v23,0,47,19,47,43v0,33,-12,103,-37,210r-23,0v-25,-116,-38,-185,-38,-210v-1,-25,25,-43,51,-43","w":210},"(":{"d":"342,161v-223,-89,-387,-460,-210,-711v53,-75,122,-138,213,-187r11,18v-141,97,-196,194,-200,411v-4,235,59,365,200,452","w":389},")":{"d":"235,-308v-3,-216,-60,-316,-200,-411r11,-18v157,83,289,225,289,437v0,206,-134,395,-286,461r-14,-17v141,-86,203,-218,200,-452","w":389},"*":{"d":"59,-591v0,-13,12,-26,25,-26v26,0,64,27,113,82v-16,-44,-24,-80,-24,-108v0,-29,10,-43,30,-43v19,0,28,14,28,43v0,28,-8,64,-23,108v49,-55,86,-83,112,-83v14,-1,25,11,25,25v0,17,-22,34,-66,50v-44,16,-65,23,-65,20v88,18,131,41,131,69v0,15,-11,26,-24,26v-26,0,-63,-28,-113,-83v15,43,23,79,23,106v0,28,-9,42,-28,42v-20,0,-30,-14,-30,-43v0,-27,8,-62,24,-105v-51,55,-89,82,-114,82v-15,0,-24,-13,-24,-26v0,-29,45,-51,132,-68v-87,-17,-132,-40,-132,-68","w":404},"+":{"d":"594,-266r-230,0r0,236r-82,0r0,-236r-231,0r0,-72r231,0r0,-238r82,0r0,238r230,0r0,72","w":678},",":{"d":"87,143v41,-25,80,-74,88,-125v5,-30,-60,-14,-79,-29v-61,-25,-20,-114,37,-108v59,6,95,46,95,112v0,62,-82,157,-131,172","w":292},"-":{"d":"435,-264r-389,0r0,-78r389,0r0,78","w":512},"\u2010":{"d":"435,-264r-389,0r0,-78r389,0r0,78","w":512},".":{"d":"82,-50v0,-35,29,-67,64,-67v35,0,66,32,66,67v0,34,-33,63,-66,63v-33,0,-64,-29,-64,-63","w":292},"\/":{"d":"336,-711r-267,726r-79,0r267,-726r79,0","w":324},"0":{"d":"247,-103v-131,0,-203,-107,-207,-222v-4,-137,110,-207,228,-212v119,-5,219,127,218,225v-2,113,-102,209,-239,209xm293,-175v77,0,111,-37,113,-113v3,-104,-87,-186,-180,-185v-68,2,-116,44,-116,122v0,103,72,176,183,176","w":565},"1":{"d":"34,-492v4,-75,60,-113,141,-113v75,0,150,85,154,155v3,42,-19,95,-65,157v-2,3,-37,45,-105,126v4,31,113,180,147,231v-4,29,-63,54,-72,14v4,-14,31,-24,7,-41v-104,-132,-155,-205,-153,-220v-2,-29,42,-98,132,-206v-89,30,-191,-17,-186,-103xm171,-569v-63,0,-80,79,-53,122v16,27,64,33,111,37v20,2,30,-18,30,-63v0,-65,-30,-96,-88,-96","w":417},"2":{"d":"67,-273v0,-69,100,-108,143,-50r35,43v99,13,193,-84,195,-152v-13,-74,-82,-95,-167,-94v-60,0,-131,8,-213,23r-33,-102v84,1,172,1,266,4v123,4,232,157,175,297v-19,46,-76,76,-109,89v-15,6,-40,8,-75,11r185,185r-31,21r-198,-200v-76,18,-173,-4,-173,-75","w":574},"3":{"d":"29,-150v0,-48,63,-70,99,-38v22,19,42,31,58,40v100,2,168,-12,162,-90v-2,-28,-25,-48,-63,-58v-20,-5,-154,-18,-211,-12r-27,-76v97,-1,196,10,272,-23v28,-13,41,-28,42,-43v4,-93,-216,-61,-321,-68r-17,-82r199,0v84,0,187,58,172,146v-7,40,-31,73,-76,100v32,26,97,55,79,121v-13,49,-34,87,-71,110v-47,29,-39,28,-89,38r120,83r-19,28v-101,-77,-165,-114,-191,-110v-65,9,-118,-10,-118,-66","w":492},"4":{"d":"324,-39v-102,81,-291,26,-282,-107v4,-59,37,-109,101,-150v-72,-47,-108,-101,-108,-161v0,-38,7,-71,29,-88r46,-35r82,3v-30,12,-88,101,-88,147v0,50,63,117,115,113v72,-6,133,-65,138,-131v4,-46,-29,-141,-57,-151r91,19v29,29,42,73,40,132v-3,73,-47,127,-133,161v104,59,116,177,26,248xm302,-83v85,-56,23,-191,-75,-180v-64,7,-107,49,-113,128v-3,45,52,86,98,82v36,-3,65,-14,90,-30","w":505},"5":{"d":"268,6v-50,0,-76,-26,-76,-78v0,-50,30,-67,87,-73r22,-106v-26,7,-53,11,-81,11v-185,5,-222,-223,-141,-365r67,44v-27,71,-40,129,-40,176v1,56,19,82,76,83v38,0,86,-12,142,-35r26,-131v10,-51,17,-95,22,-131r63,39v-17,133,-47,282,-87,461r156,155r-33,20r-134,-133v-15,42,-38,63,-69,63","w":524},"6":{"d":"353,-181v38,1,67,19,67,52v0,33,-16,60,-47,79r91,158r-38,11r-87,-152v-34,21,-78,31,-130,31v-120,0,-186,-54,-179,-171v4,-55,35,-101,91,-137v-43,-36,-85,-88,-85,-157v0,-90,79,-136,183,-136v55,0,111,8,166,25r42,97v-108,-30,-150,-37,-235,-37v-79,0,-116,26,-110,102v1,24,73,67,104,63v49,-6,108,-1,178,6r41,81v-74,-7,-186,-16,-231,7v-55,29,-52,30,-85,86v-40,67,3,116,91,116v42,0,80,-18,117,-52v0,-48,19,-72,56,-72","w":511},"7":{"d":"42,-384v58,150,100,322,280,322v147,0,233,-102,254,-261v-62,59,-153,107,-255,64v-76,-32,-111,-95,-111,-188v0,-142,176,-197,306,-141v65,28,110,112,123,160v39,139,-5,278,-100,360v-130,113,-341,80,-424,-50v-26,-41,-66,-182,-86,-258v-1,-2,4,-5,13,-8xm387,-559v-71,1,-104,30,-104,109v0,96,71,159,130,153v71,-7,121,-30,152,-62v-6,-117,-65,-202,-178,-200","w":746},"8":{"d":"563,-26v-10,-34,-27,-98,-58,-98v-115,-2,-273,26,-350,-21v-51,-32,-122,-153,-71,-240r81,-138r-111,0r-36,-81r576,0r36,81r-416,0v-14,70,-97,139,-67,226v27,77,66,93,177,93v112,0,275,-42,275,93v0,21,-7,48,-20,82v-8,2,-8,1,-16,3","w":713},"9":{"d":"26,-197v0,-87,52,-162,145,-152v-16,-10,-38,-29,-66,-57v-22,-34,-55,-70,-55,-122v0,-48,35,-75,104,-75v94,0,127,35,185,113r-4,13v-44,-35,-94,-60,-163,-60v-41,0,-44,22,-44,68v0,39,20,71,60,95v7,4,44,19,112,47r30,61v-72,-15,-115,-22,-128,-22v-100,-6,-103,105,-64,176v17,30,36,55,60,71v64,44,117,75,160,95r-2,18v-1,0,-30,-13,-87,-32v-126,-42,-243,-99,-243,-237","w":435},":":{"d":"95,-470v0,-35,29,-66,64,-66v35,0,66,31,66,66v0,34,-32,64,-66,63v-33,0,-64,-28,-64,-63xm95,-50v0,-35,29,-67,64,-67v35,0,66,32,66,67v0,34,-33,63,-66,63v-33,0,-64,-28,-64,-63","w":324},";":{"d":"95,-470v0,-35,29,-66,64,-66v35,0,66,31,66,66v0,34,-32,64,-66,63v-33,0,-64,-28,-64,-63xm87,143v41,-25,80,-74,88,-125v5,-30,-60,-14,-79,-29v-61,-25,-20,-114,37,-108v59,6,95,46,95,112v0,62,-82,157,-131,172","w":324},"<":{"d":"742,-838v90,0,128,18,179,67v19,-68,139,-152,224,-149v157,5,300,100,300,247v0,28,-11,42,-35,42v-17,0,-32,-14,-45,-43v-32,-72,-119,-163,-211,-158v-92,5,-176,71,-176,170v0,51,-71,51,-82,14v-3,-11,-2,-11,-9,-47v-27,-41,-76,-64,-144,-64v-90,0,-147,52,-172,155r445,0r0,81r-48,0v-7,25,-18,62,-38,107v-16,34,-47,62,-87,88v61,40,91,94,91,162v0,83,-83,168,-173,168v-95,0,-162,-40,-205,-116v-36,-64,-81,-268,-69,-409r-50,0r0,-81r51,0v30,-156,115,-234,254,-234xm890,-523r-319,0v-2,68,-1,96,8,165v102,17,196,-7,247,-54v28,-25,47,-64,64,-111xm757,-76v88,0,120,-111,63,-176v-54,-61,-121,-17,-223,-24v5,111,59,200,160,200xm467,23v5,16,0,31,-19,30v-25,0,-51,-17,-75,-51v-58,-82,-70,-182,-56,-339v-79,39,-173,50,-245,-12v-70,-61,-79,-176,-14,-241v65,-65,265,-67,316,14v54,86,23,249,23,377v0,101,24,175,70,222xm92,-469v2,120,239,107,231,-2v-5,-61,-32,-87,-104,-87v-69,0,-128,29,-127,89","w":1155},"=":{"d":"538,-382r-482,0r0,-80r482,0r0,80xm538,-144r-482,0r0,-78r482,0r0,78","w":626},">":{"d":"203,-490v-65,1,-112,53,-86,113v16,36,43,62,81,76v34,-18,77,-71,77,-117v0,-46,-29,-73,-72,-72xm186,-547v58,-1,130,46,130,116v0,45,-22,96,-67,152v59,39,110,49,208,59r0,-303r-122,0r-41,-81r383,0r41,81r-181,0r0,689r-80,-40r1,-64v-26,28,-65,63,-121,89v-101,47,-201,-31,-211,-135r-91,0r-40,-64r280,0r41,64r-120,0v-6,49,-2,116,54,114v28,0,56,-11,82,-32v59,-47,101,-88,126,-122r-1,-122v-23,-2,-71,-10,-141,-31v-44,-13,-79,-36,-107,-63v-56,42,-106,83,-172,117r-40,-71v77,-31,130,-57,160,-81v-48,-27,-91,-68,-100,-140v6,-70,53,-131,129,-132","w":653},"?":{"d":"101,-550v0,-120,141,-180,258,-131v65,27,108,87,108,154v0,49,-81,116,-114,154v-49,53,-54,140,-66,228r-22,0v3,-33,-18,-134,-13,-163v19,-98,15,-80,83,-166v59,-74,18,-205,-71,-195v-39,-3,-113,37,-111,70v-2,12,71,68,63,88v4,21,-45,51,-71,51v-30,0,-44,-30,-44,-90xm215,-38v0,-38,29,-69,65,-69v35,0,70,34,70,69v0,36,-33,62,-70,62v-37,0,-65,-26,-65,-62","w":528},"@":{"d":"-211,94v52,-6,100,27,97,74v-1,20,-8,30,-24,27v-109,-18,-203,-92,-256,-176r48,2v1,13,118,74,135,73"},"A":{"d":"344,-202v32,-26,103,-104,118,-156r0,-165r-139,0r-31,-81r398,0r41,81r-185,0r0,523r-84,-40r0,-200v-21,28,-68,65,-97,92v-7,90,-65,142,-154,148v-118,7,-190,-145,-207,-208r12,-1v31,49,52,86,105,120v71,45,183,-6,183,-96v0,-75,-72,-105,-140,-69r-44,-68v26,0,126,-24,144,-40v51,-47,15,-176,-61,-166v-77,10,-96,56,-124,143r-51,-51v17,-48,29,-78,37,-91v86,-133,276,20,272,134v-2,54,-34,92,-59,115v22,13,54,38,66,76","w":659},"B":{"d":"240,-125v-47,0,-127,-74,-127,-129v0,-41,33,-37,70,-36r0,-195v-4,-38,-22,-61,-57,-61v-42,0,-61,41,-60,90v0,23,14,46,42,67r-5,7v-73,-16,-106,-50,-101,-120v4,-58,37,-87,97,-87v76,0,170,32,169,111r0,188r200,0r0,-233r-79,0r-40,-81r321,0r41,81r-159,0r0,523r-84,-40r0,-166r-201,0v-2,34,11,81,-27,81","w":653},"C":{"d":"366,-400v-43,0,-57,54,-39,94v12,26,41,47,91,64v16,-64,6,-158,-52,-158xm10,-199v0,-63,13,-66,58,-114v-29,-35,-68,-61,-67,-126v0,-27,7,-55,21,-84r-40,0r-30,-81r657,0r40,81r-526,0v-50,28,-58,145,-11,184v9,-6,62,-21,82,-26r21,90v-84,11,-138,56,-141,147v-4,121,202,78,257,22v23,-23,47,-54,67,-97v-88,-30,-129,-71,-136,-160v-5,-60,54,-94,110,-95v79,0,131,75,127,160v-10,195,-106,288,-300,298v-121,6,-189,-84,-189,-199","w":596},"D":{"d":"64,-458v60,20,146,8,150,-45v3,-58,-118,-41,-132,-8v-10,13,-16,31,-18,53xm226,-570v60,60,23,165,-78,165v-33,0,-60,-7,-82,-21v10,66,72,66,145,62r57,78v-21,-1,-56,-3,-105,1v-63,5,-94,27,-94,59v-2,119,95,96,177,58v41,-19,95,-70,131,-104r0,-251r-52,0r-41,-81r324,0r40,81r-184,0r0,523r-87,-40r0,-130v-57,37,-118,81,-203,83v-89,2,-170,-64,-167,-152v0,-24,19,-59,57,-103v-43,-27,-65,-68,-65,-122v0,-92,49,-144,140,-140v37,1,66,12,87,34","w":564},"E":{"d":"215,83v0,-4,49,-38,42,-49v-1,-15,-85,-88,-253,-219r0,-338r-28,0r-30,-81r547,0r40,81r-176,0r0,322v0,46,-9,69,-27,69v-27,0,-130,-80,-121,-94v0,-9,7,-17,21,-23r40,0r0,-274r-180,0r0,337v153,128,230,204,229,231v0,17,-17,41,-49,69v-1,1,-30,-13,-55,-31","w":469},"F":{"d":"2,-225v0,-165,145,-231,339,-215r0,-83r-356,0r-40,-81r644,0r40,81r-204,0r0,165v-67,3,-149,6,-244,18v-58,7,-132,90,-126,154v9,94,83,140,177,122v-8,-49,-12,-76,-12,-82v-1,-64,41,-112,115,-118v62,-5,159,68,154,127v-9,108,-120,141,-239,137v-103,-4,-122,-24,-184,-86v-43,-42,-64,-89,-64,-139xm429,-162v0,-50,-62,-73,-104,-41v-33,25,-46,53,-51,139v53,-4,155,-33,155,-98","w":579},"G":{"d":"1,-432v0,-27,16,-66,26,-91r-39,0r-40,-82r608,1r41,81r-154,0r0,523r-84,-40r0,-128v-57,43,-98,69,-183,74v-89,5,-177,-76,-171,-165v2,-29,29,-60,83,-92v-39,-19,-87,-31,-87,-81xm127,-151v96,0,195,-56,232,-129r0,-243r-243,0v-16,22,-44,49,-45,80v14,54,14,74,85,68r49,-1r57,76v-19,2,-47,1,-83,1v-57,0,-108,39,-108,100v0,32,19,48,56,48","w":543},"H":{"d":"401,-122v11,-75,-121,-59,-171,-61v-110,-4,-154,16,-154,113v0,136,63,195,168,250r-3,16v-152,-20,-246,-62,-246,-217v0,-87,30,-148,87,-183v-46,-24,-69,-77,-69,-160v0,-37,51,-67,88,-67r279,0r0,-92r-397,0r-40,-81r656,0r40,81r-173,0r0,167r-349,0v-42,-2,-69,53,-31,84v15,12,27,22,37,22v146,0,235,-3,267,4v64,14,96,55,96,129r0,117r-85,-40r0,-82","w":584},"I":{"d":"-72,-833v125,0,158,70,168,229r161,0r40,81r-179,0r0,523r-81,-40r0,-483r-82,0r-41,-81r140,0v-10,-102,-45,-144,-143,-151v-73,-5,-159,56,-185,108r-7,0v38,-124,108,-186,209,-186","w":236},"J":{"d":"4,-321v-8,-79,34,-114,118,-114r183,0r0,-88r-332,0r-41,-81r770,0r40,81r-152,0r0,523r-81,-40r0,-168v-13,7,-111,35,-133,15v-3,118,-70,156,-160,164v24,23,46,55,82,58v29,-4,85,-28,85,17v0,16,-18,25,-54,25v-91,0,-146,-61,-192,-104v-40,4,-67,-3,-106,-18v-18,-3,-26,-19,-26,-48v0,-58,82,-78,115,-42v23,24,45,52,83,53v10,6,106,-46,122,-60v25,-21,12,-65,-26,-65v-92,0,-147,21,-220,-24v-44,-27,-72,-53,-75,-84xm57,-323v18,85,201,8,282,58v13,8,22,17,25,27v29,-5,94,-16,117,-41v14,-14,24,-20,28,-23r0,-221r-118,0r0,159r-253,0v-33,3,-51,6,-52,6v-19,5,-29,17,-29,35","w":692},"K":{"d":"375,-75v83,0,161,-24,232,-41r0,-95v-42,30,-84,66,-153,66v-78,0,-153,-63,-149,-152v4,-83,51,-148,145,-148v64,0,116,23,157,68r0,-146r-389,0v9,57,13,107,13,150v0,110,-31,150,-90,205v19,19,196,93,234,93xm114,-262v12,-24,74,-197,57,-261r-186,0r-30,-81r854,0r41,81r-161,0r0,523r-82,-40r0,-22v-146,31,-289,30,-404,-31v-21,-11,-198,-91,-193,-147v5,-54,70,-69,104,-22xm334,-271v0,57,83,82,141,66v58,-16,93,-56,132,-92r0,-64v-114,-33,-273,-18,-273,90","w":792},"L":{"d":"607,-249v4,-68,-41,-134,-107,-124v-119,17,-118,155,-162,281v69,20,113,31,132,31v106,0,130,-70,137,-188xm75,-176v-1,70,54,144,122,144v76,0,65,-152,86,-207v18,-48,38,-89,64,-119v-167,-27,-270,12,-272,182xm317,-56v-21,23,-43,62,-77,62v-177,2,-241,-32,-237,-204v2,-106,35,-179,108,-204v98,-34,162,-24,269,14v29,-21,62,-31,98,-31r0,-104r-495,0r-40,-81r846,0r41,81r-262,0r0,112v78,17,114,79,110,189v-4,135,-51,215,-181,217v-61,2,-132,-32,-180,-51","w":780},"M":{"d":"-217,-747r71,-73r72,73r-72,69"},"N":{"d":"-217,-747r71,-73r72,73r-72,69"},"O":{"d":"-266,-763v188,-54,266,-7,336,159v-4,-67,-23,-142,-51,-172v-33,-35,-97,-69,-157,-70v-59,20,-88,-4,-92,-72v71,0,115,2,132,7v41,11,86,43,135,97v29,31,47,101,52,210r166,0r40,81r-176,0r0,523r-81,-40r0,-483r-79,0r-41,-81r126,0v-44,-101,-93,-150,-216,-112v-40,32,-68,6,-94,-47","w":236},"P":{"d":"279,-217v-30,54,-135,63,-189,17v-54,-46,-86,-66,-86,-149r0,-174r-31,0r-30,-81r746,0r41,81r-366,0r0,129v141,-112,316,93,221,247v-17,28,-37,49,-62,64r-67,-71v80,-32,120,-71,120,-118v0,-50,-36,-91,-95,-89v-56,2,-103,30,-117,74r0,287r-85,-40r0,-177xm153,-226v55,-1,111,-41,126,-85r0,-212r-188,0r0,191v6,51,4,107,62,106","w":675},"Q":{"d":"74,-231v123,91,205,62,347,-25r0,-267r-78,0r-41,-81r347,0r40,81r-183,0r0,523r-85,-40r0,-128v-111,65,-188,92,-298,29v-39,-22,-102,-88,-112,-126v0,-2,17,-19,59,-41v79,-42,123,-124,130,-190v3,-29,-22,-62,-54,-62v-31,0,-69,35,-69,72v0,29,20,58,60,88r-5,7v-85,-16,-127,-53,-127,-110v0,-59,45,-98,102,-99v66,-2,162,75,162,143v0,25,-12,61,-37,107v-27,51,-80,91,-158,119","w":609},"R":{"d":"-157,-177r19,68r-233,181r-25,-63"},"S":{"d":"143,-328v52,0,80,-37,78,-88v-2,-67,-32,-98,-87,-95v-42,2,-62,30,-62,83v0,60,25,100,71,100xm125,-274v-65,3,-124,-64,-124,-131v0,-43,20,-83,60,-118r-74,0r-40,-81r677,0r40,81r-181,0r0,526r-85,-40r0,-486r-162,0v47,52,72,117,72,194v0,132,-24,221,-117,251v5,10,17,29,40,52v18,18,47,27,85,32v27,3,40,15,44,38v5,30,-21,37,-46,29v-37,-23,-131,-97,-179,-139v-17,-15,-103,-11,-113,-37v-36,-43,-13,-124,54,-114v37,-10,71,55,84,63v59,-15,74,-135,73,-197v-6,44,-56,75,-108,77","w":584},"T":{"d":"2,-227v7,-146,100,-188,273,-213r0,-83r-288,0r-40,-81r629,0r40,81r-256,0r0,154v-106,-1,-180,12,-221,39v-49,32,-74,77,-74,134v0,88,51,135,161,135v80,0,141,-31,172,-64v39,-41,50,-110,10,-173r-41,-69r5,-10v63,45,126,95,126,201v0,89,-100,176,-225,181v-129,5,-277,-105,-271,-232","w":562},"U":{"d":"-278,153v0,43,84,58,130,53v0,13,-2,35,-7,68v-99,9,-167,-21,-170,-119v-2,-65,45,-116,123,-116v73,0,148,72,188,127v17,23,40,66,72,129v-25,8,-22,-4,-42,-29v-45,-56,-99,-105,-163,-139v-26,-13,-53,-20,-82,-20v-36,0,-49,20,-49,46"},"V":{"d":"51,-296v-17,-82,47,-136,118,-136r150,0r0,-91r-335,0r-40,-81r597,0r41,81r-178,0r0,166r-219,0v-54,5,-80,25,-80,59v0,40,37,45,80,42r150,-10v70,-1,99,43,99,119v0,98,-72,144,-179,144v-129,0,-208,-106,-257,-203r5,-7v14,6,103,105,120,109v48,25,88,38,119,38v69,0,155,-28,155,-85v0,-23,-22,-45,-42,-44v-91,2,-151,31,-227,-16v-43,-27,-71,-52,-77,-85xm157,105r71,-73r71,73r-71,68","w":529},"W":{"d":"256,-604r40,81r-178,0r0,523r-81,-40r0,-483r-81,0r-41,-81r341,0xm-67,-784v24,94,133,152,231,93v30,-18,56,-47,68,-93v9,-35,11,-53,1,-53v-1,0,-13,16,-28,50v-40,88,-205,88,-244,0v-15,-34,-28,-50,-29,-50v-10,0,-8,18,1,53xm30,-817v2,-34,20,-56,54,-55v35,1,56,22,55,56v-1,34,-21,51,-55,51v-27,0,-56,-24,-54,-52","w":236},"X":{"d":"230,-163v71,-1,102,-33,174,-103r0,-257r-254,0v57,67,89,108,62,182v-12,34,-59,74,-131,124v47,36,96,54,149,54xm132,-368v25,-74,-15,-107,-67,-155r-73,0r-40,-81r648,0r40,81r-151,0r0,523r-85,-40r0,-128v-36,29,-88,73,-140,76v-91,5,-178,-51,-230,-105v-27,-29,-33,-38,-35,-45v0,-2,19,-18,57,-46v41,-30,68,-56,76,-80","w":590},"Y":{"d":"-181,-604v-55,-100,-102,-151,-227,-112v-40,32,-68,6,-94,-47v99,-30,153,-34,231,7v32,17,70,69,115,152v-15,-146,-79,-232,-218,-242v-59,20,-87,-5,-92,-72v71,0,115,2,132,7v41,11,86,43,135,97v29,31,50,101,62,210r-44,0"},"Z":{"d":"4,-358v-3,-30,93,-64,128,-62v54,3,118,31,189,93r0,-196r-333,0r-40,-81r564,0r40,81r-150,0r0,523r-81,-40r0,-174r-208,120r-70,-52r278,-150r0,-3v-45,-23,-100,-38,-163,-43v-36,-3,-87,17,-92,42v0,4,2,7,5,9r-60,-53v-5,-4,-7,-9,-7,-14","w":501},"[":{"d":"237,-604r0,614r-84,-40r0,-614","w":403},"\\":{"d":"297,-297v27,5,76,23,108,-6r0,-220r-424,0r-40,-81r657,0r40,81r-152,0r0,529r-81,-60r0,-165v-56,6,-65,1,-105,-20v-3,82,-68,163,-161,124v-87,-37,-127,-92,-140,-189v25,7,65,69,82,81v28,19,56,39,96,45v31,5,81,-63,77,-95v-5,-38,-46,-89,-89,-85v-14,-3,-70,26,-82,24r-27,-90v109,-38,248,18,241,127","w":586},"]":{"d":"227,-604r0,614r-84,-40r0,-614xm388,-604r0,614r-84,-40r0,-614","w":534},"^":{"d":"456,-523r-469,0r-40,-81r468,0xm250,-249v-8,-58,-38,-92,-72,-151r233,0r0,78r-144,0v30,55,48,78,51,128v3,53,-50,97,-106,95v-62,-2,-121,-58,-150,-105v-15,-24,-36,-72,-63,-147r8,-5v37,53,85,172,181,172v28,0,66,-34,62,-65","w":402},"_":{"d":"585,4r0,58r-585,0r0,-58r585,0","w":584},"`":{"d":"-282,17v105,-11,150,27,248,119v33,31,59,76,82,130r-46,-1v-7,-10,-95,-114,-130,-132v-31,-16,-70,-18,-129,-20v-10,0,-28,-83,-25,-96"},"a":{"d":"351,-404v12,-46,-37,-102,-66,-119r-298,0r-40,-81r653,0r40,81r-284,0v46,27,69,64,69,109v0,69,-34,95,-87,126v82,28,122,76,122,147v0,128,-174,167,-277,116v-84,-41,-151,-129,-182,-227r12,-1v59,79,119,185,259,184v54,-1,99,-35,99,-97v0,-51,-23,-86,-69,-107r-107,7r-48,-77r120,-14v41,-12,72,-1,84,-47","w":564},"b":{"d":"109,-346v-50,30,-75,52,-63,100v14,53,147,63,201,36xm278,-223v29,-13,52,-38,84,-65r0,-64v-64,-17,-157,-29,-219,-4xm362,-199v-62,47,-105,68,-187,68v-54,0,-65,-12,-109,-40v-35,-22,-71,-71,-65,-125v7,-64,56,-128,117,-137v131,-19,148,4,244,56r0,-146r-378,0r-30,-81r601,0r41,81r-149,0r0,523r-85,-40r0,-159","w":546},"c":{"d":"242,-187v73,6,185,-97,198,-114r0,-222r-452,0r-40,-81r685,0r40,81r-152,0r0,523r-81,-60r0,-131v-108,94,-329,51,-329,-91v0,-16,5,-36,14,-60r-81,0r-40,-80r280,0r41,80r-104,0v-20,20,-41,39,-41,78v0,44,18,73,62,77","w":621},"d":{"d":"-1,-220v7,-162,165,-209,324,-220r0,-83r-341,0r-40,-81r639,0r40,81r-214,0r0,156v-56,6,-127,12,-210,28v-88,17,-145,70,-150,154v-6,105,195,146,266,72v-32,-44,6,-102,65,-96v77,8,88,99,35,147r169,173r-57,3r-149,-154v-52,26,-96,40,-156,42v-113,5,-226,-104,-221,-222","w":548},"e":{"d":"1,-74v-1,-31,33,-60,60,-60v32,0,61,20,89,60v83,32,199,-25,205,-71v9,-70,-120,-51,-191,-51v-45,0,-167,-65,-162,-112v-8,-79,29,-125,118,-125r168,0r0,-90r-304,0r-40,-81r554,0r40,81r-164,0r0,161r-238,0v-54,5,-81,23,-81,52v0,39,36,42,81,42v71,0,150,-15,197,17v67,28,95,134,40,195v-43,48,-69,53,-171,57v0,14,76,50,121,56v22,3,33,15,33,28v0,63,-84,6,-107,-9v-68,-43,-107,-68,-113,-79v-30,5,-49,8,-59,8v-44,4,-75,-45,-76,-79","w":478},"f":{"d":"363,-522r-379,0r-41,-82r627,0r40,82r-161,0r0,128r-282,30v-55,6,-82,24,-81,53v0,41,36,47,81,42r171,-19v98,-10,116,116,80,194v-24,50,-63,92,-133,94v-96,4,-236,-103,-287,-172v11,-18,23,10,53,28v76,78,219,107,312,35v37,-29,49,-64,21,-95v-8,-9,-18,-12,-27,-11v-98,4,-166,46,-250,-10v-53,-34,-77,-50,-77,-106v0,-61,40,-96,120,-104r213,-23r0,-64","w":549},"g":{"d":"105,-523r-123,0r-30,-81r567,0r40,81r-156,0r0,523r-84,-40r0,-483r-127,0r0,303v0,33,-14,48,-40,47v-51,-2,-94,-54,-126,-85v-35,-33,-35,-61,5,-89r74,0r0,-176","w":504},"h":{"d":"84,-158v4,85,223,121,296,150r-3,9v-84,-4,-214,-10,-257,-35v-75,-42,-92,-37,-114,-102v-18,-54,25,-90,50,-119v-33,-30,-37,-55,-43,-119v-4,-38,53,-67,88,-68r229,0r0,-81r-347,0r-40,-81r605,0r41,81r-174,0r0,157r-298,0v-38,-5,-72,53,-31,74v12,7,25,12,37,12v172,0,189,-14,265,25v53,28,75,135,9,163r-57,-46v25,-16,37,-29,37,-40v2,-25,-98,-36,-146,-35v-69,1,-138,6,-147,55","w":534},"i":{"d":"422,-647v-30,-54,-128,-125,-213,-105v-80,18,-96,49,-107,148r158,0r40,81r-181,0r0,523r-81,-40r0,-483r-90,0r-41,-81r143,0v4,-138,23,-225,136,-225v110,0,220,89,243,182r-7,0","w":236},"j":{"d":"250,-249v-8,-58,-38,-92,-72,-151r233,0r0,-123r-424,0r-40,-81r658,0r40,81r-150,0r0,523r-84,-40r0,-282r-144,0v30,55,48,78,51,128v3,53,-50,97,-106,95v-62,-2,-121,-58,-150,-105v-15,-24,-36,-72,-63,-147r8,-5v37,53,85,172,181,172v28,0,66,-34,62,-65","w":594},"k":{"d":"34,-262v0,55,75,77,129,63v55,-14,81,-61,115,-97r0,-20v-39,-13,-88,-37,-132,-37v-60,-1,-112,40,-112,91xm-1,-297v2,-81,51,-128,137,-128v68,0,106,36,142,68r0,-166r-299,0r-30,-81r739,0r41,81r-366,0r0,166v27,-19,54,-29,81,-29v82,0,156,131,156,205v0,56,-58,103,-101,90r-67,-65v69,18,125,-41,125,-85v0,-33,-35,-70,-83,-70v-45,0,-82,17,-111,50r0,261r-85,-40r0,-165v-32,36,-62,78,-128,76v-80,-2,-154,-78,-151,-168","w":675},"l":{"d":"272,-345v27,-26,102,-66,166,-68r0,-110r-453,0r-40,-81r689,0r40,81r-152,0r0,528r-84,-40r0,-326v-96,21,-132,77,-131,184r-89,-41v2,-23,14,-57,37,-103v-29,-15,-60,-43,-98,-44v-45,0,-74,42,-72,92v6,97,62,213,108,268r-30,0v-88,-64,-149,-151,-159,-273v-7,-88,60,-166,142,-166v67,1,95,46,126,99","w":623},"m":{"d":"78,-523r-90,0r-40,-81r633,0r40,81r-149,0r0,523r-81,-40r0,-171r-235,0v2,40,-2,100,-26,96v-61,-10,-60,-15,-100,-64v-18,-23,-27,-45,-30,-65v-6,-46,32,-50,78,-47r0,-232xm391,-523r-235,0r0,232r235,0r0,-232","w":571},"n":{"d":"0,-326v0,-47,34,-45,100,-45r243,0r0,-152r-360,0r-40,-81r603,0r41,81r-165,0r0,523r-79,-40r0,-252r-195,0v-42,-1,-18,96,-68,85v-42,6,-80,-60,-80,-119","w":524},"o":{"d":"-160,-828v164,0,186,59,248,224r173,0r40,81r-182,0r0,523r-81,-40r0,-483r-84,0r-41,-81r148,0v-21,-68,-48,-111,-78,-135v-44,-35,-131,-9,-185,-1v-40,-3,-40,-25,-62,-77v48,-7,83,-11,104,-11","w":236},"p":{"d":"172,-185v79,0,132,-61,173,-137r0,-201r-259,0r0,235v-1,65,30,103,86,103xm345,-210v-40,61,-144,105,-226,57v-65,-37,-118,-71,-118,-146r0,-224r-24,0r-41,-81r637,0r40,81r-184,0r0,523r-84,-40r0,-170","w":532},"q":{"d":"1,-274v0,-91,40,-120,145,-120v132,0,198,1,195,0r0,-129r-356,0r-30,-81r606,0r41,81r-177,0r0,523r-84,-40r0,-266v-33,-1,-95,-2,-185,-2v-56,0,-90,8,-90,61v0,64,18,98,59,163v25,39,35,62,35,71v-20,10,-33,-13,-64,-48v-50,-57,-95,-123,-95,-213","w":527},"r":{"d":"99,-251v74,-41,123,-176,72,-272r-186,0r-30,-81r443,0r40,81r-210,0v22,43,33,98,33,165v0,106,-58,175,-138,204r187,185r-51,0r-189,-191v-46,-45,-69,-79,-69,-102v0,-17,19,-28,31,-28v16,-5,57,40,67,39","w":362},"s":{"d":"205,-523v34,84,50,139,7,242v24,3,66,6,124,9v33,1,70,-13,112,-41r0,-210r-243,0xm40,-302v22,-6,54,58,70,20v55,-53,89,-155,41,-241r-163,0r-30,-81r690,0r40,81r-156,0r0,523r-84,-40r0,-193v-90,35,-145,46,-246,-10v-32,41,-44,52,-83,69r114,187r-39,0r-120,-196v-47,-30,-71,-58,-71,-82v-1,-17,20,-38,37,-37","w":635},"t":{"d":"212,0v-83,0,-218,-90,-211,-206v5,-89,45,-146,114,-176v77,-33,118,-28,209,-28r0,-113r-343,0r-40,-81r596,0r41,81r-170,0r0,190r-138,0v-106,2,-208,58,-206,168v1,64,48,102,114,100v94,-3,139,-32,211,-90r64,63v-83,62,-138,92,-241,92","w":510},"u":{"d":"-211,49v76,0,116,57,120,122v4,57,-54,114,-125,114v-72,0,-144,-55,-186,-94v-22,-21,-54,-60,-94,-115r15,-6v49,37,162,148,275,144v48,-1,68,-12,68,-49v0,-49,-77,-48,-139,-37v-1,-12,-3,-36,-5,-69v26,-7,50,-10,71,-10"},"v":{"d":"2,-300v3,-86,54,-134,144,-134v74,0,137,22,191,67r0,-156r-351,0r-30,-81r577,0r41,81r-153,0r0,523r-84,-40r0,-161v-69,38,-114,66,-183,66v-85,0,-155,-72,-152,-165xm144,-191v74,0,157,-82,193,-97r0,-64v-114,-28,-297,-28,-303,90v-3,51,59,71,110,71","w":522},"w":{"d":"256,-604r40,81r-178,0r0,523r-81,-40r0,-483r-81,0r-41,-81r341,0","w":236},"x":{"d":"169,-155v66,0,78,-25,91,-86r0,-282r-173,0r0,225v-2,98,5,143,82,143xm2,-523r-28,0r-41,-81r703,0r40,81r-150,0r0,523r-84,-40r0,-483r-97,0v-3,113,12,243,-10,340v-14,60,-59,73,-136,80v-112,10,-198,-96,-197,-206r0,-214","w":625},"y":{"d":"-168,-604v-25,-67,-53,-108,-82,-131v-42,-33,-132,-9,-184,-1v-41,-3,-41,-25,-63,-77v116,-20,185,-16,256,35v30,21,62,80,100,174r-27,0"},"z":{"d":"183,-101v45,0,74,-12,72,-65v0,-17,-3,-35,-9,-54v-9,-28,-57,-64,-145,-106r-46,0r-53,-69r393,0r0,-128r-409,0r-40,-81r669,0r40,81r-179,0r0,523r-81,-40r0,-286r-223,0v54,24,128,54,148,103v43,103,-8,179,-119,192v-20,2,-42,-9,-57,-16v61,51,92,89,92,116v0,11,-6,24,-19,24v-21,0,-60,-47,-117,-142v-61,-13,-92,-39,-92,-76v0,-41,39,-63,80,-50v20,6,32,23,35,54v8,13,28,20,60,20","w":588},"{":{"d":"98,-251v74,-41,123,-176,72,-272r-188,0r-30,-81r565,0r40,81r-330,0v26,51,36,124,24,193v79,18,178,26,180,103v1,52,-57,127,-84,170v-27,-11,-50,-32,-67,-63v23,-29,79,-69,69,-112v-5,-22,-43,-40,-109,-56v-13,43,-71,120,-122,130r191,189r-45,0r-189,-192v-49,-45,-74,-79,-74,-102v-1,-17,18,-27,30,-27v16,-5,57,40,67,39","w":507},"|":{"d":"51,-296v-17,-82,47,-136,118,-136r150,0r0,-91r-335,0r-40,-81r703,0r40,81r-283,0r0,166r-219,0v-54,5,-80,25,-80,59v0,40,37,45,80,42r150,-10v70,-1,99,43,99,119v0,98,-72,144,-179,144v-129,0,-208,-106,-257,-203r5,-7v14,6,103,105,120,109v48,25,88,38,119,38v69,0,155,-28,155,-85v0,-23,-22,-45,-42,-44v-91,2,-151,31,-227,-16v-43,-27,-71,-52,-77,-85xm435,-302r71,-73r72,73r-72,68","w":632},"}":{"d":"98,-251v74,-41,123,-176,72,-272r-188,0r-30,-81r706,0r41,81r-472,0v26,51,36,124,24,193r41,0v60,-57,167,-42,213,18v34,45,67,109,96,197r-39,-25v-36,-72,-75,-123,-115,-157v-42,-35,-136,-16,-136,37v0,23,14,43,28,41v11,2,51,-22,61,-21v15,-2,28,26,28,34v0,14,-38,44,-66,42v-61,-5,-118,-58,-96,-124r-26,0v-13,43,-71,120,-122,130r191,189r-45,0r-189,-192v-49,-45,-74,-79,-74,-102v-1,-17,18,-27,30,-27v16,-5,57,40,67,39","w":647},"~":{"d":"-308,-784v23,95,133,152,230,93v30,-18,56,-47,68,-93v9,-35,11,-53,1,-53v-1,0,-13,16,-28,50v-40,88,-205,88,-244,0v-15,-34,-27,-50,-28,-50v-10,0,-8,18,1,53"},"\u00c4":{"d":"272,-47v-91,-27,-179,-140,-136,-264r-106,0r-30,-84r421,0r0,-128r-436,0r-30,-81r689,0r40,81r-178,0r0,523r-85,-40r0,-266r-136,0v-31,2,-71,3,-82,22v-49,91,53,171,75,234","w":618},"\u00c5":{"d":"957,-409v0,-33,-33,-78,-74,-78v-32,0,-66,35,-109,99v-26,38,-24,263,-50,302v-28,83,-150,109,-206,37v-19,-6,-51,-137,-95,-117v0,0,-3,14,-9,50v-13,73,-157,144,-248,105v-97,-42,-151,-123,-168,-229r14,-1v39,76,73,162,184,162v70,0,144,-31,144,-106v0,-50,-23,-112,-56,-125r-112,15r-53,-82v67,-8,173,-5,202,-43v22,-29,26,-118,-3,-158v-23,-31,-41,-47,-81,-47v-94,0,-116,69,-149,172r-61,-62v19,-56,35,-92,44,-109v66,-124,247,-29,291,37v41,61,67,97,49,154v-25,80,-24,88,-91,115v29,21,56,50,73,81v99,-44,124,86,163,134v39,48,100,20,116,-44v10,-38,13,-225,27,-262v29,-77,95,-144,186,-149v80,-4,134,75,139,148v5,73,-94,143,-159,149r-12,-18v38,-12,104,-82,104,-130xm433,-597v24,94,133,152,231,93v30,-18,56,-46,68,-93v9,-35,11,-52,1,-52v-1,0,-13,15,-28,49v-39,89,-205,89,-244,0v-15,-34,-28,-49,-29,-49v-10,0,-8,17,1,52xm524,-644v3,-34,20,-56,54,-55v35,1,56,22,55,56v-1,34,-21,51,-55,51v-27,0,-56,-24,-54,-52","w":1088},"\u00c7":{"d":"275,-418v0,-46,-29,-73,-72,-72v-65,1,-112,53,-86,113v16,36,43,62,81,76v34,-18,77,-71,77,-117xm457,-163v-80,-6,-199,-32,-248,-77v-56,42,-106,83,-172,117r-40,-71v77,-31,130,-57,160,-81v-48,-27,-91,-68,-100,-140v6,-70,53,-131,129,-132v58,-1,130,46,130,116v0,45,-22,96,-67,152v22,7,154,58,208,46r0,-290r-112,0r-41,-81r344,0r40,81r-151,0r0,523r-80,-40r0,-123","w":641},"\u00c9":{"d":"654,-99v-72,17,-146,-10,-146,-81v0,-22,11,-42,31,-62v-11,-8,-66,-23,-64,-48r-74,41r0,249r-80,-40r0,-168r-208,112r-70,-50r278,-150r0,-3v-45,-23,-100,-38,-163,-43v-36,-3,-87,17,-92,42v0,4,2,7,5,9r-60,-53v-5,-4,-7,-9,-7,-14v-3,-30,93,-64,128,-62v54,3,118,31,189,93r0,-196r-333,0r-40,-81r848,0r41,81r-436,0r0,187r94,-41v46,-41,113,-44,203,-55r9,56v-36,4,-185,6,-180,64v6,63,71,24,102,17r73,-19r36,49v-67,20,-164,20,-170,98v-2,25,39,20,61,14r106,-31r33,52","w":784},"\u00d1":{"d":"89,-83v3,-46,68,-32,130,-35r0,-50v-78,15,-146,-15,-179,-36v-47,-31,-56,-128,-10,-167v39,-34,86,-58,178,-72r0,-80r-225,0r-40,-81r674,0r40,81r-150,0r0,563r-81,-40r0,-67r-140,0r-1,33r-66,0r0,-33v-14,0,-34,-3,-32,11v4,26,5,45,-31,45v-37,0,-61,-30,-67,-72xm426,-523r-138,0r0,143v-59,15,-242,9,-244,95v-1,35,61,58,102,60v22,2,48,-2,80,-4v49,-3,64,49,60,111r140,0r0,-405","w":608},"\u00d6":{"d":"121,-55v2,38,59,62,84,62v31,0,65,-20,103,-60v48,-51,87,-104,118,-157r0,-313r-138,0r0,133v-45,4,-215,28,-229,67v-49,56,30,97,87,98v40,1,103,-19,138,-49r37,65v-62,39,-185,59,-200,154xm78,-70v0,-36,16,-74,27,-104r-64,-32v-25,-17,-39,-44,-40,-79v-3,-94,82,-153,207,-168r0,-70r-225,0r-40,-81r674,0r40,81r-150,0r0,563r-81,-40r0,-97v-8,42,-133,176,-204,163v-57,3,-143,-61,-144,-136","w":608},"\u00dc":{"d":"182,-3v-101,-19,-183,-107,-183,-217v0,-162,165,-209,324,-220r0,-83r-341,0r-40,-81r639,0r40,81r-214,0r0,156v-56,6,-127,12,-210,28v-88,17,-145,70,-150,154v-6,105,195,146,266,72v-32,-44,6,-102,65,-96v77,8,88,99,35,147r169,173r-57,3r-149,-154v-43,22,-83,35,-121,39r-65,232v-7,25,-19,38,-36,38v-58,0,-106,-90,-108,-145v0,-26,13,-43,37,-53r71,19","w":548},"\u00e1":{"d":"-215,179v-45,-6,-91,28,-91,58v0,17,18,25,56,24r111,-3r18,60v-77,-2,-152,14,-201,-25v-51,-41,-54,-111,9,-142v-6,-6,-59,-38,-50,-62v2,-120,144,-99,252,-80r-6,57v-30,-5,-191,-49,-191,24v0,50,54,34,95,34r75,0r22,57"},"\u00e0":{"d":"336,-523r-253,0r0,30r243,143v23,-40,4,-117,10,-173xm308,-311r-225,-134r0,126v-2,48,40,71,101,70v75,0,116,-21,124,-62xm65,-107v-1,59,84,96,137,97v72,-15,184,-68,160,-165v-2,-7,-12,-25,-30,-53v-10,12,-111,41,-134,41v-59,-1,-133,28,-133,80xm4,-523r-28,0r-32,-81r579,0r32,81r-142,0r0,193v0,15,-12,40,-38,72v34,33,65,102,42,168v-36,96,-229,163,-343,93v-89,-55,-96,-142,-9,-218v-22,-28,-61,-72,-61,-112r0,-196","w":514},"\u00e2":{"d":"-457,34v-12,-69,41,-116,104,-116r120,0r0,-52r75,0r0,112r-192,0v-27,2,-59,21,-59,46v0,26,20,37,59,31v86,-14,219,-31,228,63v4,46,-73,115,-150,120v-79,5,-162,-65,-198,-116r3,-7v34,19,122,82,193,65v77,-18,114,-31,114,-53v0,-14,-39,-30,-55,-29v-73,6,-116,34,-183,-5v-35,-20,-55,-38,-59,-59"},"\u00e4":{"d":"-332,-114v9,-39,34,-34,100,-34r240,0r0,-375r-43,0r-41,-81r285,0r40,81r-157,0r0,555r-84,-40r0,-90r-230,0v-19,0,-10,22,-9,35v0,14,-11,22,-34,22v-37,1,-64,-28,-67,-73","w":193},"\u00e3":{"d":"-302,-106v17,-22,71,-44,103,-11v10,10,23,26,32,51r-10,14v-20,-35,-69,-66,-87,-12v-4,12,-6,30,-5,53r-49,-25v-2,-24,1,-32,8,-50v-61,-24,-108,49,-63,92r32,29r-12,10v-63,-30,-84,-33,-89,-97v-3,-40,28,-80,76,-80v26,0,47,9,64,26"},"\u00e5":{"d":"351,-404v12,-46,-37,-102,-66,-119r-298,0r-40,-81r782,0r40,81r-413,0v46,27,69,64,69,109v0,69,-34,95,-87,126v24,8,42,16,55,26v39,-15,73,-23,104,-23v120,0,163,167,84,228r-64,-64v33,-13,49,-33,49,-62v0,-21,-15,-46,-41,-46v-22,0,-47,10,-77,30v9,17,13,36,13,55v0,129,-173,171,-278,119v-84,-41,-151,-129,-182,-227r12,-1v59,79,119,185,259,184v54,-1,99,-35,99,-97v0,-51,-23,-86,-69,-107r-107,7r-48,-77r120,-14v41,-12,72,-1,84,-47","w":705},"\u00e7":{"d":"504,-523r-518,0r-40,-81r518,0xm440,-191v-108,94,-329,51,-329,-91v0,-16,5,-36,14,-60r-81,0r-40,-80r280,0r41,80r-104,0v-20,20,-41,39,-41,78v0,44,18,73,62,77v73,6,185,-97,198,-114r0,110","w":433},"\u00e9":{"d":"-331,-798v-8,-92,150,-131,214,-59v21,24,35,43,39,65r-13,1v-12,-22,-50,-47,-84,-45v-66,3,-90,48,-69,112v12,38,40,74,87,106r3,9v-120,-48,-167,-80,-177,-189"},"\u00e8":{"d":"164,-124v83,-4,126,-29,190,-83r57,58v-45,35,-87,58,-126,70r0,111v85,-71,175,33,175,119v0,53,-37,70,-91,68r-45,-47v65,11,102,-31,107,-69v-5,-62,-122,-45,-146,-4r0,152r-74,-26r0,-87v-21,22,-63,44,-115,44v-56,0,-101,-48,-101,-108v0,-93,113,-113,176,-66r40,31r0,-108v-89,5,-211,-72,-207,-183v5,-146,132,-196,291,-184r0,-87r-304,0r-40,-81r536,0r40,81r-156,0r0,157r-125,0v-95,2,-186,53,-185,151v2,58,43,94,103,91xm18,98v-2,35,54,56,92,44v41,-13,70,-44,101,-68r0,-20v-52,-15,-88,-22,-108,-22v-47,-1,-82,26,-85,66","w":471},"\u00ea":{"d":"336,-523r-253,0r0,40r243,143v20,-40,6,-126,10,-183xm83,-319v-4,48,50,72,113,71v65,0,101,-19,109,-58r-222,-128r0,115xm113,-215v-35,-12,-109,-71,-109,-112r0,-196r-27,0r-32,-81r579,0r32,81r-143,0r0,163v-1,40,-76,144,-110,155v-25,19,-164,51,-188,61v-86,35,-37,142,50,135v60,9,131,-51,153,-70v20,-17,32,-34,36,-50r55,42v-31,63,-133,125,-218,124v-86,-1,-212,-82,-174,-176v11,-28,65,-58,96,-76","w":514},"\u00eb":{"d":"12,-343v-15,-67,59,-120,112,-120r150,0r0,-59r-280,0r-40,-82r562,0r40,82r-203,0r0,122r-213,0v-31,-1,-72,18,-70,47v2,33,28,36,70,34v70,-3,129,-18,194,5v44,15,68,35,68,64v0,96,-19,109,-117,121v-69,8,-162,5,-203,-18v-19,-11,-73,-75,-86,-97r3,-7v64,29,134,90,223,73v50,-8,136,-6,132,-59v-2,-35,-27,-33,-74,-29v-81,7,-122,30,-197,-11v-43,-23,-66,-42,-71,-66xm374,-359r56,-58r58,58r-58,55","w":504},"\u00ed":{"d":"-533,-798v-8,-92,150,-131,214,-59v21,24,36,43,40,65r-13,1v-12,-22,-51,-47,-85,-45v-66,4,-90,47,-69,112v12,38,40,74,87,106r3,9v-120,-48,-167,-80,-177,-189"},"\u00ec":{"d":"12,-343v-15,-67,59,-120,112,-120r150,0r0,-59r-280,0r-40,-82r562,0r40,82r-203,0r0,122r-213,0v-31,-1,-72,18,-70,47v2,33,28,36,70,34v70,-3,129,-18,194,5v44,15,68,35,68,64v0,96,-19,109,-117,121v-69,8,-162,5,-203,-18v-19,-11,-73,-75,-86,-97r3,-7v64,29,134,90,223,73v50,-8,136,-6,132,-59v-2,-35,-27,-33,-74,-29v-81,7,-122,30,-197,-11v-43,-23,-66,-42,-71,-66","w":504},"\u00ee":{"d":"-153,-821r59,0r0,156r-59,0r0,-156"},"\u00ef":{"d":"-168,130v1,-41,-15,-53,-57,-53v-49,0,-61,58,-46,103v50,10,102,-11,103,-50xm-277,231v-94,0,-195,-66,-195,-161v0,-119,129,-148,250,-158r0,-76r62,0r0,136v-119,3,-266,11,-266,121v0,56,52,84,119,87v-25,-71,3,-140,85,-144v45,-2,98,45,97,87v0,76,-68,108,-152,108"},"\u00f1":{"d":"368,-523r-379,0r-40,-81r379,0xm2,-318v0,-47,39,-52,98,-52r182,0r0,78r-134,0v-42,-1,-18,96,-68,85v-39,4,-78,-51,-78,-111","w":315},"\u00f3":{"d":"-424,98v52,-5,69,-37,121,-82r0,-23v-50,-16,-85,-23,-107,-23v-49,-2,-76,33,-79,74v-2,31,32,57,65,54xm-422,-87v51,0,90,37,119,64r0,-127r68,0r0,118v84,-81,168,42,168,136v0,55,-29,82,-84,78r-41,-53v66,13,99,-42,99,-80v0,-25,-16,-46,-50,-46v-42,0,-73,13,-92,42r0,197r-68,-30r0,-122v-18,23,-60,48,-115,51v-107,5,-135,-228,-4,-228"},"\u00f2":{"d":"-288,82v48,-5,68,-37,105,-75r0,-15v-40,-47,-165,-36,-165,41v0,29,31,52,60,49xm-512,5v11,-4,29,27,37,25v14,0,30,-28,46,-85v11,-41,8,-65,-3,-109r33,0v13,33,19,72,19,119v0,73,-22,116,-73,141v58,50,121,92,213,57r64,-22r0,-63v-14,22,-57,58,-88,58v-58,0,-107,-51,-103,-119v3,-57,26,-98,85,-98v41,0,77,16,106,50r0,-130r60,0r0,408r-60,-52r0,-16v-143,49,-212,12,-314,-70v-33,-26,-52,-44,-52,-63v0,-15,17,-32,30,-31"},"\u00f4":{"d":"-374,141v63,0,119,-47,148,-101r0,-189r65,0r0,389r-65,-31r0,-84v-46,40,-56,56,-120,62v-61,5,-109,-49,-109,-111v0,-28,24,-81,44,-91v-18,-20,-43,-30,-45,-69v0,-19,6,-40,18,-64r71,0v-28,29,-58,115,16,112r35,-1r42,55v-15,2,-37,2,-64,2v-31,0,-77,40,-77,76v0,30,14,45,41,45"},"\u00f6":{"d":"-363,139v-49,0,-93,-55,-93,-96v0,-30,28,-32,59,-30r0,-161r64,0r0,251v0,24,-10,36,-30,36xm-161,233r-64,-31r0,-350r64,0r0,381"},"\u00f5":{"d":"131,-163v74,1,104,-33,177,-103r0,-257r-321,0r-40,-81r557,0r40,81r-151,0r0,523r-85,-40r0,-159v-19,50,-80,102,-140,107v-89,8,-198,-79,-224,-145v74,-26,147,-82,163,-134v-4,-46,-65,-37,-110,-27r-8,-47v29,-5,51,-7,68,-7v68,0,88,60,95,112v-7,72,-64,93,-135,116v33,40,53,60,114,61","w":493},"\u00fa":{"d":"164,-124v83,-4,126,-29,190,-83r57,58v-11,9,-25,18,-40,28r0,182r-125,0v-95,2,-186,53,-185,151v2,58,43,93,103,90v84,-4,126,-29,190,-82r57,58v-75,55,-124,80,-216,82v-75,1,-196,-81,-191,-185v7,-145,132,-196,291,-184r-1,-74v-31,10,-67,15,-99,16v-75,0,-196,-81,-191,-185v7,-145,132,-196,291,-184r0,-87r-304,0r-40,-81r536,0r40,81r-156,0r0,157r-125,0v-95,2,-186,53,-185,151v2,58,43,94,103,91","w":471},"\u00f9":{"d":"221,114v0,25,25,39,45,39v62,0,122,-91,139,-161r-31,-30v-17,8,-46,24,-78,31v-18,18,-75,74,-75,121xm439,28v-4,98,-85,150,-165,156v-59,4,-94,-56,-98,-100v-2,-24,28,-71,38,-83v-120,-9,-215,-100,-215,-221v0,-162,165,-209,324,-220r0,-83r-341,0r-40,-81r618,0r41,81r-194,0r0,156v-56,6,-127,12,-210,28v-88,17,-145,70,-150,154v-6,105,195,146,266,72v-32,-44,6,-102,65,-96v77,8,88,99,35,147r169,173r-57,3","w":548},"\u00fb":{"d":"164,-124v83,-4,126,-29,190,-83r57,58v-42,33,-81,54,-116,66r0,127v-148,-3,-239,28,-239,140v0,72,42,110,131,110v65,0,114,-25,139,-52v32,-34,40,-89,8,-140r-33,-56r4,-8r62,50v28,30,40,68,40,112v0,73,-81,143,-182,147v-104,4,-225,-83,-219,-188v7,-117,81,-152,221,-173r0,-57v-12,1,-22,2,-31,2v-81,1,-196,-78,-192,-183v6,-146,132,-196,291,-184r0,-87r-304,0r-40,-81r536,0r40,81r-156,0r0,157r-125,0v-95,2,-186,53,-185,151v2,58,43,94,103,91","w":471},"\u00fc":{"d":"-362,49v76,0,117,56,120,122v3,56,-55,114,-125,114v-72,0,-144,-54,-186,-94v-22,-21,-54,-60,-94,-115r15,-6v49,37,162,148,275,144v48,-1,68,-12,68,-49v0,-48,-77,-48,-139,-37v-1,-12,-3,-36,-5,-69v26,-7,50,-10,71,-10"},"\u00b0":{"d":"20,-591v0,-82,74,-153,155,-153v81,0,154,74,154,154v0,83,-73,154,-155,154v-81,0,-154,-74,-154,-155xm253,-666v-42,-42,-113,-43,-154,-1v-40,41,-45,111,-2,154v42,43,111,45,154,1v41,-42,45,-111,2,-154xm305,-394r41,53r-302,0r-40,-53r301,0","w":352},"\u00a2":{"d":"-341,290v0,35,69,48,104,43v0,11,-2,29,-6,55v-85,5,-131,-15,-135,-96v-3,-51,37,-91,99,-91v59,0,117,54,149,100v17,23,36,56,58,101r-12,0v-39,-40,-122,-148,-218,-148v-27,0,-39,15,-39,36"},"\u00a3":{"d":"-152,306v-2,-40,-67,-38,-111,-29v-1,-10,-2,-28,-4,-55v90,-29,149,12,153,89v5,73,-103,115,-175,69v-66,-43,-103,-79,-148,-145r12,-5v38,30,130,119,220,115v38,-2,54,-8,53,-39"},"\u00a7":{"d":"600,-523r-206,0r0,202r206,0r0,-202xm621,146v-80,0,-129,-47,-129,-135v0,-57,36,-111,108,-161r0,-90r-206,0r0,240r-84,-40r0,-170r-209,94r-58,-62r269,-117v-24,-13,-83,-55,-143,-56v-41,-1,-95,19,-99,50v0,4,2,8,6,11r-65,-63v-6,-5,-8,-11,-8,-17v-4,-33,104,-68,142,-63v48,6,103,32,165,84r0,-174r-328,0r-40,-81r863,0r41,81r-165,0r0,430v-88,37,-132,75,-132,113v0,37,26,60,58,59v26,0,69,-18,128,-55r41,78v-29,20,-109,44,-155,44","w":792},"\u00b6":{"d":"0,-369v0,-86,74,-165,165,-165r135,0r0,34r-33,0r0,667r-34,0r0,-667r-64,0r0,667r-34,0r0,-354v-80,-13,-135,-87,-135,-182","w":364},"\u00ae":{"d":"-395,-104r19,69r-184,144r-27,-63"},"\u00a9":{"d":"186,-523r0,303v0,31,-11,47,-35,47v-46,0,-95,-56,-125,-85v-35,-33,-35,-61,5,-89r74,0r0,-176r-120,0r-30,-81r351,0r41,81r-161,0","w":288},"\u00b4":{"d":"-145,70v1,59,-30,116,-91,114v-112,-4,-170,-127,-126,-244r43,0v-5,84,-8,165,69,164v50,10,61,-57,91,-76v9,0,14,14,14,42"},"\u00a8":{"d":"-429,153v0,43,84,58,130,53v0,13,-2,35,-7,68v-99,9,-167,-21,-170,-119v-2,-65,45,-116,123,-116v73,0,148,72,188,127v17,23,40,66,72,129v-25,8,-23,-4,-43,-29v-44,-56,-99,-105,-162,-139v-26,-13,-53,-20,-82,-20v-36,0,-49,20,-49,46"},"\u00c6":{"d":"212,-281v86,23,138,17,201,-30r0,80v-72,33,-138,44,-211,-12v-32,41,-44,52,-83,69r187,185r-39,0r-193,-194v-47,-30,-71,-58,-71,-82v-1,-17,20,-38,37,-37v22,-6,54,58,70,20v55,-53,89,-156,41,-242r-166,1r-30,-81r475,0r41,81r-266,0v34,84,50,139,7,242","w":407},"\u00d8":{"d":"215,-604r40,81r-262,0r-40,-81r262,0","w":194},"\u00b1":{"d":"430,-523r-444,0r-30,-81r434,0xm0,-300v3,-81,48,-133,133,-133v78,0,149,33,212,100r0,15v-52,-16,-136,-42,-191,-42v-68,0,-122,42,-122,98v0,58,83,82,140,66v59,-17,95,-62,137,-96r72,22v-43,44,-152,138,-229,135v-85,-2,-155,-72,-152,-165","w":359},"\u00a5":{"d":"-380,-604v-25,-67,-53,-108,-82,-131v-42,-33,-132,-9,-184,-1v-40,-3,-41,-25,-63,-77v116,-20,185,-16,256,35v30,21,62,80,100,174r-27,0"},"\u00b5":{"d":"129,-120v-54,0,-124,-65,-127,-126v-2,-43,29,-48,71,-45r0,-232r-85,0r-40,-81r448,0r40,81r-280,0r0,232r195,0r0,78r-195,0v-1,42,7,93,-27,93","w":384},"\u03bc":{"d":"129,-120v-54,0,-124,-65,-127,-126v-2,-43,29,-48,71,-45r0,-232r-85,0r-40,-81r448,0r40,81r-280,0r0,232r195,0r0,78r-195,0v-1,42,7,93,-27,93","w":384},"\u00aa":{"d":"275,-418v0,-46,-29,-73,-72,-72v-65,1,-112,53,-86,113v16,36,43,62,81,76v34,-18,77,-71,77,-117xm186,-547v58,-1,130,46,130,116v0,45,-22,96,-67,152v59,39,110,49,208,59r0,-303r-112,0r-41,-81r344,0r40,81r-151,0r0,523r-80,-40r0,-106v-19,0,-45,-2,-76,-5r-214,168r-44,-52r184,-145v-40,-15,-72,-35,-98,-60v-56,42,-106,83,-172,117r-40,-71v77,-31,130,-57,160,-81v-48,-27,-91,-68,-100,-140v6,-70,53,-131,129,-132","w":641},"\u00e6":{"d":"-379,91r81,-80r79,80r-79,79","w":13},"\u00f8":{"d":"2,-523r-85,0r-40,-81r152,0v-19,-45,-39,-51,-98,-72v-80,-28,-141,-20,-180,-81v-12,-19,-23,-48,-29,-88v25,-7,39,59,52,64v55,39,191,41,240,93v22,24,35,51,40,84r171,0r40,81r-182,0r0,523r-81,-40r0,-483","w":205},"\u00bf":{"d":"422,-523r-434,0r-40,-81r434,0xm4,-358v-3,-30,93,-62,128,-62v75,0,156,42,243,124r0,58r-262,144r-70,-52r278,-150r0,-3v-45,-23,-100,-38,-163,-43v-36,-3,-87,17,-92,42v0,4,2,7,5,9r-60,-53v-5,-4,-7,-9,-7,-14","w":358},"\u00a1":{"d":"-443,56v0,84,234,98,305,128r-3,11v-128,-4,-279,-9,-342,-56v-23,-16,-40,-48,-41,-88v-3,-110,191,-132,298,-110v59,13,96,47,96,111v0,37,-12,61,-37,70r-55,-46v20,-9,30,-19,30,-28v-15,-58,-150,-54,-212,-31v-26,9,-39,22,-39,39"},"\u00ac":{"d":"146,-444v67,1,95,46,126,99v27,-26,102,-66,166,-68r0,52v-96,21,-132,77,-131,184r-89,-41v2,-23,14,-57,37,-103v-29,-15,-60,-43,-98,-44v-45,0,-74,42,-72,91v5,98,62,214,108,269r-30,0v-88,-64,-149,-151,-159,-273v-7,-88,60,-166,142,-166xm499,-523r-514,0r-40,-81r514,0","w":431},"\u00ab":{"d":"-19,-523r-40,-81r503,0r40,81r-503,0xm297,-297v27,5,76,23,108,-6r0,84v-56,6,-65,1,-105,-20v-3,82,-68,163,-161,124v-87,-37,-127,-92,-140,-189v25,7,65,69,82,81v28,19,56,39,96,45v31,5,81,-63,77,-95v-5,-38,-46,-89,-89,-85v-14,-3,-70,26,-82,24r-27,-90v18,-7,43,-11,74,-11v92,0,168,56,167,138","w":429},"\u00bb":{"d":"2,-297v0,-90,40,-117,144,-117r215,0r0,-109r-376,0r-30,-81r606,0r41,81r-159,0r0,523r-82,-40r0,-175r-143,112r-42,-62r185,-143r0,-25r-205,0v-64,1,-91,22,-94,79v-4,68,76,153,87,214v-19,10,-31,-13,-58,-46v-42,-51,-89,-129,-89,-211","w":544},"\u00a0":{"w":352},"\u00c0":{"d":"226,-112v-97,-5,-219,-68,-219,-157r0,-254r-25,0r-40,-81r602,0r41,81r-160,0r0,523r-84,-40r0,-142v-11,32,-72,73,-115,70xm341,-523r-249,0r0,27r236,236v7,-10,11,-21,13,-31r0,-232xm92,-437r0,179v39,136,129,122,207,28","w":527},"\u00c3":{"d":"92,-437r0,179v39,136,129,122,207,28xm226,-112v-97,0,-219,-68,-219,-157r0,-254r-25,0r-40,-81r421,0r40,81r-311,0r0,27r236,236r0,78v-5,47,-61,70,-102,70","w":344},"\u00d5":{"d":"-418,36v-38,-79,-19,-156,87,-156r144,0r0,-96r84,41r0,326r-84,-40r0,-167r-137,0v-43,4,-62,5,-66,39v-4,46,58,128,69,164v-13,9,-25,-10,-47,-36v-21,-24,-37,-49,-50,-75"},"\u00f7":{"d":"183,-101v45,0,74,-12,72,-65v0,-17,-3,-35,-9,-54v-9,-28,-57,-64,-145,-106r-56,0r-43,-69r414,0r0,69r-244,0v54,24,128,54,148,103v43,103,-8,179,-119,192v-20,2,-42,-9,-57,-16v61,51,92,89,92,116v0,11,-6,24,-19,24v-21,0,-60,-47,-117,-142v-61,-13,-92,-39,-92,-76v0,-41,39,-63,80,-50v20,6,32,23,35,54v8,13,28,20,60,20xm480,-523r-494,0r-40,-81r493,0","w":408},"\u00ff":{"d":"1030,38r-1032,0r0,-642r1032,0r0,642xm779,-490v-5,-6,-13,-19,-24,-40r-25,40r24,40v10,-10,18,-23,25,-40xm877,-50v18,2,46,-17,65,-25r57,95v4,2,10,-2,13,-2v-2,-34,-41,-75,-58,-110v12,-15,28,-94,-17,-90v-25,-3,-29,36,-22,62v-19,15,-34,23,-43,23v-63,-5,-83,-95,-37,-140v14,-32,102,-42,117,-44r0,-99r60,0r0,-49r-349,0v22,45,-7,47,47,49r0,171v-18,15,-62,72,-109,41v-17,-11,-25,-22,-28,-29v41,-19,75,-85,76,-142v1,-59,-54,-117,-90,-74v-11,-24,-37,-14,-68,-16v-3,-127,91,-121,128,-30v-16,-62,-7,-39,-49,-92v-11,-13,-23,-20,-36,-20v-69,2,-58,69,-62,142r-57,0v3,7,8,21,14,44v1,3,14,5,39,5r0,304v13,10,13,11,30,25r0,-329r49,0v-6,39,16,83,50,79v0,-1,-28,-42,-24,-57v-2,-29,29,-69,47,-29v10,84,-30,127,-68,169v-11,19,23,47,31,65v8,18,48,37,54,38v29,4,54,-33,73,-41v4,28,-9,72,8,87v9,5,17,11,25,18r0,-329r176,0r0,54v-58,5,-76,19,-109,64v-44,59,-5,206,67,212xm382,-39v8,-19,35,-36,17,-58v-7,-8,-13,-19,-18,-30r-26,47v3,5,12,19,27,41xm238,-283v-19,-28,-45,-4,-64,8r0,-105r174,0v-8,-10,-9,-39,-15,-49r-318,0r0,49r125,0v1,3,2,35,2,97v0,5,-1,7,-2,7v-4,-1,-27,-34,-34,-32v-64,-33,-90,11,-90,75v0,55,17,99,62,99v12,0,33,-15,63,-46v1,3,1,33,1,90v-5,19,32,36,32,39r0,-132v0,-48,11,-55,51,-64v21,0,39,19,38,41v-2,35,-23,59,-55,58v10,13,16,35,32,41v65,-19,36,-141,-2,-176xm99,-190v-29,32,-69,14,-69,-28v0,-53,43,-71,99,-38v27,17,-2,30,-12,48v-8,9,-14,15,-18,18","w":1059},"\u00a4":{"d":"143,-328v52,0,80,-37,78,-88v-2,-67,-32,-98,-87,-95v-42,2,-62,30,-62,83v0,60,25,100,71,100xm125,-274v-65,3,-124,-64,-124,-131v0,-43,20,-83,60,-118r-74,0r-40,-81r466,0r41,81r-218,0v47,52,72,117,72,194v0,132,-24,221,-117,251v5,10,17,29,40,52v18,18,47,27,85,32v27,3,40,15,44,38v5,30,-21,37,-46,29v-37,-23,-131,-97,-179,-139v-17,-15,-103,-11,-113,-37v-36,-43,-13,-124,54,-114v37,-10,71,55,84,63v59,-15,74,-135,73,-197v-6,44,-56,75,-108,77","w":406},"\u00b7":{"d":"102,-292v0,-35,30,-67,64,-67v35,0,66,32,66,67v0,34,-32,64,-66,63v-33,0,-64,-29,-64,-63","w":352},"\u2219":{"d":"102,-292v0,-35,30,-67,64,-67v35,0,66,32,66,67v0,34,-32,64,-66,63v-33,0,-64,-29,-64,-63","w":352},"\u00c2":{"d":"-319,-784v24,94,133,152,231,93v30,-18,56,-47,68,-93v9,-35,11,-53,1,-53v-1,0,-13,16,-28,50v-40,88,-205,88,-244,0v-15,-34,-28,-50,-29,-50v-10,0,-8,18,1,53xm-222,-817v2,-34,20,-56,54,-55v35,1,56,22,55,56v-1,34,-21,51,-55,51v-27,0,-56,-24,-54,-52"},"\u00ca":{"d":"4,-358v-3,-30,93,-64,128,-62v54,3,118,31,190,93r0,-196r-334,0r-40,-81r798,0r40,81r-387,0r0,187r84,-45v-6,-65,59,-79,100,-49v39,28,21,87,-21,93v9,18,23,46,45,77v38,53,60,93,60,127v0,39,-27,64,-81,73r-58,-58v65,-9,90,-52,65,-107v-17,-38,-42,-65,-64,-97r-130,67r0,255r-77,-40r0,-168r-209,112r-70,-50r279,-150r0,-3v-46,-23,-101,-38,-164,-43v-36,-3,-87,17,-92,42v0,4,2,7,5,9r-60,-53v-5,-4,-7,-9,-7,-14","w":737},"\u00c1":{"d":"-393,-604v-55,-100,-101,-151,-227,-112v-40,32,-68,6,-94,-47v99,-30,153,-34,231,7v32,17,70,69,115,152v-15,-146,-79,-232,-218,-242v-58,20,-87,-4,-91,-72v71,0,115,2,132,7v41,11,86,43,135,97v29,31,49,101,61,210r-44,0"},"\u00cb":{"d":"68,-118v-5,71,72,129,87,183v-19,9,-33,-8,-58,-31v-57,-52,-117,-166,-74,-260v20,-41,74,-45,129,-45v132,0,198,1,195,0r0,-84r-304,0r-40,-76r344,0r0,-92r-365,0r-30,-81r830,0r41,81r-394,0r0,92r104,0v63,-3,143,79,143,142v0,68,-43,193,-76,231r-61,-62v11,-24,75,-117,75,-173v0,-81,-106,-59,-185,-62r0,419r-82,-41r0,-215r-185,0v-68,6,-89,14,-94,74","w":771},"\u00c8":{"d":"482,-523r-497,0r-30,-81r487,0xm272,-47v-91,-27,-179,-140,-136,-264r-106,0r-30,-84r421,0r0,89r-136,0v-31,2,-71,3,-82,22v-49,91,53,171,75,234","w":416},"\u00cd":{"d":"-431,-3v0,39,55,49,92,36v37,-13,73,-35,106,-66v-58,-16,-97,-25,-117,-25v-43,2,-81,27,-81,55xm-465,-17v2,-56,43,-95,103,-95v56,0,105,24,150,70r28,0r0,-74r83,40r0,161r-83,-41r0,-39r-28,0v-28,24,-91,77,-137,74v-55,-3,-118,-34,-116,-96"},"\u00ce":{"d":"64,-458v60,20,146,8,150,-45v3,-58,-118,-41,-132,-8v-10,13,-16,31,-18,53xm69,-226v-2,119,95,96,177,58v41,-19,95,-70,131,-104r0,102v-57,37,-118,81,-203,83v-89,2,-170,-64,-167,-152v0,-24,19,-59,57,-103v-43,-27,-65,-68,-65,-122v0,-92,49,-142,140,-140v65,2,111,43,116,105v7,93,-122,116,-189,73v10,66,72,66,145,62r57,78v-21,-1,-56,-3,-105,1v-63,5,-94,27,-94,59","w":371},"\u00cf":{"d":"557,-241v0,-33,-35,-70,-83,-70v-45,0,-82,17,-111,50r0,289v-36,19,-103,43,-102,87v1,87,128,35,158,6r57,56v-54,40,-105,60,-151,60v-92,0,-175,-157,-93,-226r46,-30r0,-186v-32,36,-62,78,-128,76v-80,-2,-154,-78,-151,-168v2,-81,51,-128,137,-128v68,0,106,36,142,68r0,-166r-299,0r-30,-81r739,0r41,81r-366,0r0,166v27,-19,54,-29,81,-29v82,0,156,131,156,205v0,56,-58,103,-101,90r-67,-65v69,18,125,-41,125,-85xm34,-262v0,55,75,77,129,63v55,-14,81,-61,115,-97r0,-20v-39,-13,-88,-37,-132,-37v-60,-1,-112,40,-112,91","w":679},"\u00cc":{"d":"82,-220v-57,-33,-83,-51,-83,-108v0,-57,40,-91,120,-103r139,-22r0,-70r-275,0r-40,-81r580,0r40,81r-219,0r0,133r-209,30v-50,7,-81,12,-81,52v0,40,35,46,81,42r185,-18r7,76v-102,9,-226,9,-241,109v4,55,60,75,117,59v14,-4,42,-16,85,-35v-14,-35,-1,-64,43,-64v57,0,73,72,30,104r131,122r-34,10r-121,-111v-20,16,-86,29,-145,34v-107,9,-219,-168,-110,-240","w":495},"\u00d3":{"d":"-193,-726v0,-25,23,-51,49,-49v31,2,50,19,49,50v-1,30,-19,46,-50,46v-25,0,-48,-22,-48,-47xm-341,-798v-8,-92,150,-131,213,-59v21,24,36,43,40,65r-13,1v-12,-22,-50,-47,-84,-45v-66,3,-90,48,-69,112v12,38,40,74,87,106r3,9v-119,-49,-168,-79,-177,-189"},"\u00d4":{"d":"57,-312v0,37,47,29,81,29r120,0v44,2,94,12,106,45v25,-3,57,-5,94,-19v40,-15,66,-34,81,-45r0,94v-27,7,-118,33,-163,15v-3,118,-70,156,-160,164v24,23,46,55,82,58v29,-4,85,-28,85,17v0,16,-18,25,-54,25v-91,0,-146,-61,-192,-104v-40,4,-67,-3,-106,-18v-18,-3,-26,-19,-26,-48v0,-58,82,-78,115,-42v23,24,45,52,83,53v15,4,92,-38,122,-55v31,-18,2,-70,-26,-70v-88,0,-148,21,-220,-19v-52,-30,-76,-45,-76,-100v0,-61,39,-103,119,-103r183,0r0,-88r-332,0r-41,-81r613,0r41,81r-195,0r0,159r-253,0v-54,5,-81,23,-81,52","w":524},"\u00d2":{"d":"607,-249v4,-68,-41,-134,-107,-124v-119,17,-118,155,-162,281v69,20,113,31,132,31v106,0,130,-70,137,-188xm75,-176v-1,70,54,144,122,144v76,0,65,-152,86,-207v18,-48,38,-89,64,-119v-167,-27,-270,12,-272,182xm502,-423v167,0,198,163,161,303v-29,108,-152,140,-269,95r-77,-31v-21,23,-43,62,-77,62v-177,2,-241,-32,-237,-204v2,-106,35,-179,108,-204v98,-34,162,-24,269,14v32,-23,73,-35,122,-35xm-17,-523r-40,-81r846,0r41,81r-847,0","w":779},"\u00da":{"d":"44,-469v0,-60,56,-116,117,-116v61,0,115,56,115,117v0,61,-55,115,-116,115v-62,0,-116,-54,-116,-116xm203,-426v38,-38,9,-105,-44,-105v-32,0,-61,31,-61,63v0,51,67,80,105,42xm47,-152v0,-60,55,-115,117,-115v61,0,115,56,115,116v0,61,-55,116,-116,116v-62,0,-116,-55,-116,-117xm206,-109v38,-38,9,-104,-44,-104v-32,0,-61,31,-61,63v0,51,67,79,105,41","w":428},"\u00db":{"d":"81,164v-82,-36,-29,-138,55,-131v87,7,152,57,221,84r73,-92r-58,-58v-52,27,-75,31,-152,35v-113,6,-226,-104,-221,-222v7,-162,165,-209,324,-220r0,-83r-341,0r-40,-81r639,0r40,81r-214,0r0,156v-56,6,-127,12,-210,28v-88,17,-145,70,-150,154v-6,105,195,146,266,72v-32,-44,6,-102,65,-96v77,8,88,99,35,147r169,173r-61,10r-57,-60r-81,104v9,11,26,16,26,35v0,57,-108,50,-113,1v4,-20,19,-31,28,-47v-60,-23,-115,-67,-188,-72v-48,-4,-61,26,-34,49v2,7,45,12,42,27v-2,13,-52,14,-63,6","w":548},"\u00d9":{"d":"140,-268v77,0,107,-37,195,-86r0,-25v-81,-17,-139,-25,-172,-25v-68,0,-123,27,-133,79v0,45,63,57,110,57xm647,-319v-4,-33,-35,-50,-87,-50v-68,0,-118,14,-151,44r0,325r-74,-26r0,-60v-30,-34,-54,-50,-70,-50v-33,-1,-54,61,-51,101r-49,-25v-3,-14,-1,-34,7,-60v-48,-20,-100,-9,-100,40v0,33,31,53,49,71r-11,10v-62,-31,-84,-34,-89,-98v-3,-43,34,-81,81,-81v29,0,55,12,78,37v12,-19,50,-56,95,-34v17,8,39,24,60,52r0,-153v-30,26,-101,53,-185,53v-77,0,-152,-50,-152,-132v0,-125,179,-126,272,-79r65,38r0,-127r-351,0r-30,-81r841,0r41,81r-427,0r0,118v34,-19,69,-28,104,-28v87,0,180,87,177,172v-2,68,-64,84,-137,83r-69,-56v90,12,154,-34,163,-85","w":784}}});
