/*!
 * The following copyright notice may not be removed under any circumstances.
 * 
 * Copyright:
 * Copyright (c)2009 Paul Alan Grosse. All Rights Reserved. Released under the
 * GPL.
 */
Cufon.registerFont({"w":604,"face":{"font-family":"Gurvetica","font-weight":400,"font-stretch":"normal","units-per-em":"1008","panose-1":"2 0 6 3 0 0 0 0 0 0","ascent":"806","descent":"-202","cap-height":"30","bbox":"-534.192 -1038 859 346","underline-thickness":"32.256","underline-position":"-321.552","unicode-range":"U+0020-U+00AC"},"glyphs":{" ":{"w":302},"!":{"d":"134,49r0,-98r85,0r0,98r-85,0xm146,-806r61,0r0,604r-61,0r0,-604","w":453},"\"":{"d":"433,-504r-60,0r0,-202r60,0r0,202xm232,-504r-61,0r0,-202r61,0r0,202"},"#":{"d":"433,30r-60,0r0,-201r-141,0r0,201r-61,0r0,-201r-70,0r0,-61r70,0r0,-141r-70,0r0,-60r70,0r0,-202r61,0r0,202r141,0r0,-202r60,0r0,202r71,0r0,60r-71,0r0,141r71,0r0,61r-71,0r0,201xm373,-232r0,-141r-141,0r0,141r141,0"},"$":{"d":"333,0r-61,0r0,-71v-134,-3,-201,-47,-201,-131r60,0v0,45,47,69,141,71r0,-242v-134,-4,-201,-59,-201,-166v0,-126,67,-191,201,-196r0,-71r61,0r0,70v135,3,202,47,202,131r-60,0v0,-45,-47,-68,-142,-70r0,242v134,4,201,59,201,166v0,126,-67,191,-201,196r0,71xm333,-372r0,240v94,-4,141,-49,141,-135v0,-67,-47,-102,-141,-105xm272,-434r0,-241v-94,4,-141,50,-141,136v0,67,47,102,141,105"},"%":{"d":"534,-635v8,134,-5,148,-110,253r-201,202v-41,42,-80,82,-92,130r0,80r-60,0v1,-69,-8,-107,27,-156v73,-103,196,-202,284,-298v89,-97,98,-91,92,-211r60,0xm202,-373v-70,0,-131,-60,-131,-133v0,-69,62,-129,131,-129v70,0,131,62,131,131v0,69,-61,131,-131,131xm202,-575v-37,0,-71,33,-71,72v0,37,34,70,71,70v37,0,70,-34,70,-71v0,-37,-33,-71,-70,-71xm272,-101v0,-70,61,-131,131,-131v70,0,131,61,131,131v0,70,-61,131,-131,131v-70,0,-131,-61,-131,-131xm403,-171v-37,0,-70,32,-70,70v0,38,33,71,70,71v37,0,71,-34,71,-71v0,-37,-33,-70,-71,-70"},"'":{"d":"232,-504r-61,0r0,-202r61,0r0,202","w":504},"(":{"d":"328,-689v-128,174,-128,599,0,773r-51,33v-142,-194,-141,-645,0,-839","w":504},")":{"d":"227,-722v141,194,142,646,0,839r-51,-33v128,-174,128,-599,0,-773","w":504},"*":{"d":"303,-101r-60,0r0,-149r-130,75r-30,-53r130,-75r-127,-74r30,-52r127,73r0,-148r60,0r0,149r129,-74r31,52r-128,74r130,75r-31,53r-131,-76r0,150","w":548},",":{"d":"154,68r-8,0r0,-98r86,0r0,74r-79,170r-54,-25","w":352},"-":{"d":"504,-333r0,61r-454,0r0,-61r454,0","w":554},".":{"d":"134,49r0,-98r85,0r0,98r-85,0","w":352},"0":{"d":"60,-302v0,-193,138,-333,333,-333v195,0,333,140,333,333v0,192,-139,332,-333,332v-194,0,-333,-140,-333,-332xm665,-302v0,-160,-113,-273,-272,-273v-159,0,-272,112,-272,273v0,160,114,272,272,272v159,0,272,-112,272,-272","w":786},"1":{"d":"292,-575v-81,0,-171,48,-171,121v0,73,89,121,171,121v82,0,172,-48,172,-121v0,-73,-91,-121,-172,-121xm60,-454v0,-105,117,-181,232,-181v128,0,262,88,226,224r-57,217v-28,107,-19,161,29,164r0,60v-99,-5,-129,-85,-88,-239r26,-97v-137,84,-368,6,-368,-148","w":589},"2":{"d":"382,-68v27,25,64,38,112,38r0,60v-65,0,-115,-18,-154,-53v-74,-68,-122,-84,-230,-78r0,-61r31,0v215,-34,322,-120,323,-259v0,-102,-78,-154,-235,-154v-39,0,-81,9,-128,27r-21,-56v53,-20,103,-31,149,-31v197,0,295,71,295,214v0,138,-79,234,-237,287v32,15,64,37,95,66","w":584},"3":{"d":"353,-86v41,17,95,58,141,56r0,60v-37,0,-75,-12,-116,-36v-66,-39,-140,-61,-221,-65v-33,-1,-59,-6,-77,-13r21,-56v16,6,42,9,77,9v191,0,286,-37,286,-109v0,-58,-89,-88,-265,-88r-67,0r0,-61r48,0v189,0,284,-29,284,-88v0,-65,-56,-98,-172,-98v-88,0,-151,9,-189,26r-25,-55v46,-20,117,-31,214,-31v157,0,232,52,232,158v0,54,-34,93,-101,118v67,24,101,64,101,119v0,79,-57,130,-171,154","w":584},"4":{"d":"294,-297v-90,0,-173,47,-173,134v0,85,85,133,171,133v87,0,172,-47,172,-133v0,-85,-86,-134,-170,-134xm381,-635v66,11,131,96,131,153v0,65,-46,120,-100,150v62,28,112,92,112,169v0,118,-111,193,-232,193v-121,0,-232,-76,-232,-193v0,-76,50,-139,111,-168v-52,-31,-98,-88,-98,-150v0,-56,69,-146,131,-154r0,61v-28,13,-77,69,-70,93v-3,69,93,124,159,124v58,0,164,-53,158,-125v6,-28,-41,-77,-70,-93r0,-60","w":584},"5":{"d":"232,-454v0,33,-29,92,-87,178v105,50,204,63,319,28r0,-387r60,0r0,665r-60,0r0,-215v-151,42,-286,2,-407,-69r19,-28v47,-70,79,-111,95,-172v0,-81,-23,-121,-70,-121r0,-60v87,0,131,60,131,181","w":594},"6":{"d":"483,-769v-52,-15,-119,-11,-119,63v0,75,38,90,109,84r0,61r-149,0v-135,0,-203,35,-203,107v0,81,55,121,167,121r180,0r0,61r-180,0v-112,0,-167,40,-167,121v0,80,70,120,210,121v62,0,115,-4,157,-12r11,60v-46,8,-102,12,-169,12v-180,0,-270,-60,-270,-181v0,-72,27,-122,80,-151v-53,-29,-80,-80,-80,-152v0,-112,87,-167,260,-168v-10,-22,-16,-50,-16,-84v0,-69,26,-110,78,-123v45,-12,87,-11,123,3","w":587},"7":{"d":"325,-635v148,0,222,87,222,262v0,269,-152,403,-454,403r0,-60v262,0,393,-115,393,-343v0,-134,-53,-202,-161,-202v-69,0,-103,58,-103,172r-61,0v0,-155,55,-232,164,-232","w":612},"8":{"d":"199,-474v-92,0,-139,-35,-139,-106v0,-71,35,-105,106,-105v71,0,106,45,106,133r0,187v0,223,71,335,212,335v54,0,107,-3,158,-9r6,61v-53,6,-108,8,-164,8v-181,0,-272,-132,-272,-395r0,-187v0,-48,-16,-73,-46,-73v-30,0,-45,15,-45,45v0,30,26,46,78,46r446,0r0,60r-446,0","w":735},"9":{"d":"640,-697v-77,-16,-122,4,-122,69v0,76,34,101,106,94r0,60r-352,0r0,109v0,223,71,335,212,335v54,0,107,-3,158,-9r6,61v-53,6,-108,8,-164,8v-181,0,-272,-132,-272,-395r0,-109v-96,3,-152,-31,-152,-106v0,-71,35,-105,106,-105v77,0,110,55,106,151r204,0v-12,-24,-18,-56,-18,-94v-1,-101,75,-152,193,-128xm212,-534v3,-50,-10,-91,-46,-91v-30,0,-45,15,-45,45v0,34,38,48,91,46","w":735},":":{"d":"134,-203r0,-98r85,0r0,98r-85,0xm134,49r0,-98r85,0r0,98r-85,0","w":352},";":{"d":"134,-203r0,-98r85,0r0,98r-85,0xm142,49r-8,0r0,-98r85,0r0,74r-78,170r-55,-25","w":352},"?":{"d":"260,49r0,-98r85,0r0,98r-85,0xm304,-837v154,0,230,77,230,232v0,92,-38,162,-115,211v-58,37,-86,90,-86,160r-61,0v0,-92,38,-162,115,-211v58,-37,87,-90,87,-160v0,-114,-57,-171,-170,-171v-115,0,-173,57,-173,171r-60,0v0,-155,77,-232,233,-232"},"@":{"d":"-302,171v155,-5,219,11,323,110r-42,43v-91,-87,-144,-97,-282,-92","w":0},"A":{"d":"726,-635r133,0r0,60r-73,0r0,605r-60,0r0,-252v-65,0,-144,-2,-196,8v-6,79,-20,133,-42,165v-17,24,-38,36,-65,37v-66,2,-88,-44,-66,-138v12,-53,51,-91,115,-112v-2,-90,-40,-135,-113,-135v-39,0,-71,2,-100,7v-5,79,-20,134,-42,166v-17,24,-39,36,-66,37v-66,2,-87,-45,-65,-139v12,-53,50,-90,114,-111v-2,-92,-43,-138,-122,-138r-78,0r0,-60r78,0v116,0,176,61,182,184v29,-4,62,-7,98,-7v111,0,169,61,174,182v57,-8,128,-6,194,-6r0,-353xm197,-370v-29,14,-47,34,-53,59v-15,56,0,80,23,52v15,-19,25,-57,30,-111xm468,-195v-29,14,-46,34,-52,59v-15,55,0,80,22,52v15,-19,24,-57,30,-111","w":856},"B":{"d":"607,-635r0,60r-73,0v2,94,-6,183,-32,244v21,37,32,77,32,119v0,161,-94,242,-284,242v-48,0,-102,-18,-164,-54r30,-53v52,31,97,47,134,47v170,4,250,-91,215,-236v-47,58,-112,87,-194,87v-113,0,-170,-48,-170,-144v0,-96,56,-143,168,-143v77,0,140,25,189,76v14,-48,17,-117,16,-185r-474,0r0,-60r607,0xm433,-327v-35,-48,-94,-79,-164,-79v-72,0,-108,28,-108,83v0,55,37,84,110,84v74,0,131,-34,162,-88"},"C":{"d":"658,-635r0,60r-89,0r0,202r-355,0v-55,0,-83,24,-83,71v0,47,28,70,83,70r227,0v96,0,144,44,144,131v0,87,-48,131,-144,131r-227,0v-96,0,-143,-44,-143,-131v0,-45,12,-79,38,-101v-26,-22,-38,-55,-38,-100v0,-87,47,-131,143,-131r294,0r0,-142r-508,0r0,-60r658,0xm343,-171v20,33,14,89,15,141v79,2,166,8,166,-71v0,-83,-100,-70,-181,-70xm297,-30r0,-71v0,-47,-28,-70,-83,-70v-55,0,-83,23,-83,70v0,78,87,73,166,71","w":655},"D":{"d":"559,-575r0,605r-60,0r0,-86v-165,58,-309,6,-438,-86v48,-82,87,-191,85,-261v-3,-138,-33,-184,-146,-172r0,-60r633,0r0,60r-74,0xm499,-121r0,-454r-330,0v63,120,44,275,-29,413v117,71,228,92,359,41","w":630},"E":{"d":"721,-635r0,60r-75,0v-12,129,-50,215,-115,258v32,22,46,56,42,102v-16,163,-92,245,-226,245v-125,0,-212,-161,-261,-483v-7,-43,-11,-84,-13,-122r-73,0r0,-60r71,0v-1,-250,100,-375,304,-375v136,0,240,9,313,28r-15,59v-68,-17,-167,-27,-298,-27v-162,0,-244,105,-244,315r590,0xm134,-575v4,73,19,164,32,230r250,0v97,0,154,-77,169,-230r-451,0xm180,-285v42,170,98,255,167,255v98,0,155,-64,165,-191v4,-50,-44,-64,-103,-64r-229,0","w":718},"F":{"d":"759,-635r0,60r-74,0r0,252r-451,0v11,161,67,256,167,284v-16,-108,37,-168,153,-168v87,0,131,40,131,119v0,98,-93,118,-213,118v-185,0,-285,-118,-299,-353v-66,3,-103,-22,-102,-80v0,-54,26,-81,80,-81v57,-1,84,36,81,101r393,0r0,-192r-625,0r0,-60r759,0xm171,-383v1,-22,-2,-40,-20,-40v-13,0,-20,7,-20,20v0,16,18,22,40,20xm466,-30v71,3,159,1,159,-58v0,-39,-24,-58,-71,-58v-84,0,-109,50,-88,116","w":756},"G":{"d":"786,-575r0,605r-60,0r0,-84v-93,35,-182,27,-271,-13v-144,76,-276,19,-393,-76v47,-83,87,-193,84,-260v-5,-138,-33,-184,-146,-172r0,-60v149,-13,207,54,207,232v0,71,-23,152,-68,243v96,67,179,90,284,41r0,-516r61,0r0,515v82,35,160,37,242,1r0,-516r133,0r0,60r-73,0","w":856},"H":{"d":"-245,135v0,23,63,87,86,87v18,0,28,-10,28,-28r0,-194r60,0r0,194v0,59,-29,88,-88,88v-57,0,-146,-92,-146,-146v0,-59,28,-89,88,-89r0,61v-19,0,-28,9,-28,27","w":0},"I":{"d":"108,-869v0,-72,-30,-109,-89,-109v-60,0,-90,37,-90,109r0,138r-60,0r0,-138v0,-113,50,-169,150,-169v100,0,150,56,150,169r0,899r-61,0r0,-899xm0,-575r0,-60r280,0r0,60r-280,0","w":277},"J":{"d":"534,-253v0,88,-47,154,-116,182v20,25,40,54,61,85r-51,33v-26,-38,-50,-72,-73,-100v-30,6,-64,9,-101,8v-122,-3,-183,-39,-183,-108v0,-52,39,-79,119,-79v56,0,118,37,186,112v65,-21,98,-66,98,-133v0,-64,-80,-108,-177,-128v-56,24,-120,41,-192,51r-9,-60v45,-7,86,-15,124,-27v-55,-35,-101,-88,-138,-158r-82,0r0,-60r607,0r0,60r-85,0v-35,62,-84,113,-146,153v106,34,158,90,158,169xm306,-107v-44,-43,-83,-64,-116,-64v-39,0,-59,6,-59,18v0,30,41,45,123,47v18,0,36,0,52,-1xm152,-575v39,62,87,105,143,129v67,-32,118,-75,156,-129r-299,0"},"K":{"d":"0,-635v159,-21,213,80,205,264r294,0r0,-264r134,0r0,60r-74,0r0,605r-60,0r0,-86v-165,58,-309,6,-438,-86v48,-82,87,-192,85,-261v-3,-138,-33,-184,-146,-172r0,-60xm499,-121r0,-189r-304,0v-11,46,-29,95,-55,148v117,71,228,92,359,41","w":630},"L":{"d":"809,-635r0,60r-175,0v-4,55,-19,111,-43,165v97,33,145,102,145,208v0,155,-77,232,-232,232r0,-60v114,0,171,-58,171,-172v0,-78,-38,-129,-113,-153v-36,62,-84,124,-146,184r-26,0v-62,-60,-111,-122,-147,-184v-75,23,-112,73,-112,153v0,114,57,172,171,172r0,60v-155,0,-231,-77,-231,-232v0,-107,48,-176,145,-208v-24,-54,-39,-110,-43,-165r-173,0r0,-60r809,0xm233,-575v9,109,66,220,170,331v104,-111,162,-222,171,-331r-341,0xm766,46r0,-98r86,0r0,98r-86,0","w":806},"M":{"d":"-349,-684v-97,-79,-76,-253,72,-253v87,0,131,44,131,131v0,42,-20,83,-60,122r-42,-43v28,-28,41,-54,41,-79v0,-46,-23,-71,-70,-71v-47,0,-71,24,-71,71v0,26,15,51,42,79","w":0},"N":{"d":"-181,-732r0,-99r85,0r0,99r-85,0","w":0},"O":{"d":"-273,-584v-57,-55,-75,-118,-47,-192r-83,0v-148,9,-169,-175,-72,-253r43,42v-28,28,-42,55,-42,80v0,47,24,70,71,70r201,0v148,-9,169,175,72,253r-42,-42v28,-28,41,-55,41,-80v0,-46,-24,-69,-71,-70v-89,-1,-87,104,-29,150","w":0},"P":{"d":"534,-373r-232,0v-114,0,-171,32,-171,96v0,86,22,149,64,190v36,-97,97,-146,184,-145v104,1,156,45,156,131v0,88,-56,131,-170,131v-196,0,-294,-103,-294,-307v0,-104,76,-156,231,-156r172,0r0,-142r-474,0r0,-60r607,0r0,60r-73,0r0,202xm247,-52v61,32,228,40,228,-48v0,-47,-32,-71,-96,-71v-62,0,-106,39,-132,119"},"Q":{"d":"559,-575r0,605r-60,0r0,-86v-165,58,-309,6,-438,-86v48,-82,87,-192,85,-261v-4,-138,-33,-184,-146,-172r0,-60r633,0r0,60r-74,0xm499,-121r0,-189r-304,0v-11,46,-29,95,-55,148v117,71,228,92,359,41xm169,-575v29,42,43,123,36,204r294,0r0,-204r-330,0","w":630},"R":{"d":"-131,182v-27,3,-40,11,-40,26v0,9,5,14,16,14v18,1,25,-16,24,-40xm-71,125v67,16,101,76,101,177r-60,0v0,-56,-14,-92,-41,-109v-2,60,-30,89,-84,89v-51,0,-77,-25,-77,-74v0,-54,34,-83,101,-87r0,-121r60,0r0,125","w":0},"S":{"d":"386,-51r0,-99r85,0r0,99r-85,0xm222,-272v-68,-5,-90,4,-91,87v0,70,17,104,53,104v24,0,37,-52,38,-155r0,-36xm220,-333v-9,-161,-48,-242,-119,-242r-101,0r0,-60r708,0r0,60r-73,0r0,605r-60,0r0,-302r-293,0r0,36v0,144,-32,216,-98,216v-76,0,-115,-55,-113,-165v2,-118,43,-158,149,-148xm279,-333r296,0r0,-242r-360,0v35,50,56,130,64,242","w":705},"T":{"d":"71,-202v0,-126,86,-212,201,-229r0,-144r-272,0r0,-60r607,0r0,60r-274,0r0,144v116,17,201,103,201,229v0,135,-97,232,-232,232v-135,0,-231,-97,-231,-232xm302,-373v-100,0,-171,71,-171,171v0,100,71,172,171,172v101,0,172,-71,172,-173v0,-100,-72,-170,-172,-170"},"U":{"d":"-88,166v-148,72,-284,72,-430,0r28,-54v128,63,245,63,376,0xm-88,292v-148,72,-284,72,-430,0r28,-54v128,63,245,63,376,0","w":0},"V":{"d":"328,-81v128,0,227,-37,227,-126v0,-76,-52,-114,-158,-114r-109,0r0,-61r109,0v98,0,153,-65,165,-193r-562,0r0,-60r693,0r0,60r-70,0v-8,103,-40,176,-94,216v58,27,87,77,87,152v0,95,-56,153,-167,176v16,31,25,76,25,132r-61,0v0,-67,-11,-108,-33,-123v-67,5,-128,0,-183,-21v16,43,25,91,25,144r-61,0v0,-96,-31,-171,-91,-225r41,-44v61,58,134,87,217,87","w":690},"W":{"d":"280,-635r0,60r-111,0r0,273r-61,0r0,-273r-108,0r0,-60r280,0xm91,-797r0,-99r85,0r0,99r-85,0","w":277},"X":{"d":"736,-575r0,605r-61,0r0,-302r-160,0r0,210v-165,65,-325,16,-456,-81v60,-83,114,-199,112,-260v-6,-136,-49,-183,-171,-172r0,-60r809,0r0,60r-73,0xm675,-333r0,-242r-487,0v29,39,44,96,44,172v0,68,-30,149,-89,243v103,61,191,84,312,54r0,-227r220,0","w":806},"Y":{"d":"-316,-776v-83,0,-139,13,-167,41r-42,-42v62,-75,320,-84,392,-4v-11,-131,-75,-197,-195,-197v-77,0,-128,14,-154,41r-44,-41v38,-40,104,-60,198,-60v172,0,257,99,257,298r0,135r-60,0v2,-115,-60,-171,-185,-171","w":0},"Z":{"d":"131,-242v0,139,63,211,200,212v28,0,42,-36,42,-107r0,-175r-171,0v-47,0,-71,23,-71,70xm708,-635r0,60r-73,0r0,605r-60,0r0,-605r-142,0r0,438v0,111,-33,167,-102,167v-173,1,-259,-90,-260,-272v0,-87,43,-131,131,-131r171,0r0,-202r-373,0r0,-60r708,0xm58,100r0,-99r86,0r0,99r-86,0","w":705},"[":{"d":"232,30r-61,0r0,-665r61,0r0,665","w":504},"\\":{"d":"534,-380r-332,0v-47,0,-70,27,-70,78v0,47,23,70,70,70r332,0r0,61r-273,0v23,94,79,141,168,141r105,0r0,60r-105,0v-127,0,-203,-67,-230,-201v-85,-1,-128,-45,-128,-131v0,-79,33,-124,98,-135v-28,-34,-38,-79,-36,-138r-133,0r0,-60r607,0r0,60r-73,0r0,195xm474,-575r-280,0v-4,71,19,113,75,135r205,0r0,-135"},"]":{"d":"232,30r-61,0r0,-665r61,0r0,665xm433,30r-60,0r0,-665r60,0r0,665","w":705},"^":{"d":"58,100r0,-99r86,0r0,99r-86,0xm0,-635v159,-21,213,80,205,264r294,0r0,-264r134,0r0,60r-74,0r0,605r-60,0r0,-86v-165,58,-309,6,-438,-86v48,-82,87,-192,85,-261v-3,-138,-33,-184,-146,-172r0,-60xm499,-121r0,-189r-304,0v-11,46,-29,95,-55,148v117,71,228,92,359,41","w":630},"_":{"d":"103,-635r0,60r-103,0r0,-60r103,0","w":100},"`":{"d":"232,-504r-61,0r0,-202r61,0r0,202","w":504},"a":{"d":"180,-285v43,170,99,255,167,255v98,0,155,-64,165,-191v4,-55,-43,-63,-109,-64r-223,0xm528,-317v34,23,49,57,45,102v-16,163,-92,245,-226,245v-97,0,-171,-95,-221,-284v-25,-92,-46,-211,-53,-321r-73,0r0,-60r71,0v0,-250,101,-375,304,-375v194,0,286,137,274,375r72,0r0,60r-76,0v-13,126,-53,212,-117,258xm132,-635r456,0v11,-195,-60,-315,-214,-315v-161,0,-241,105,-242,315xm134,-575v4,74,18,164,33,230r249,0v94,0,151,-77,168,-230r-450,0","w":718},"b":{"d":"133,-204v59,130,217,188,341,88r0,-190r-228,0v-61,18,-98,53,-113,102xm607,-635r0,60r-73,0r0,605r-60,0r0,-73v-43,26,-83,38,-120,38v-139,1,-235,-68,-285,-194v15,-66,49,-114,110,-145v-55,-51,-90,-128,-105,-231r-74,0r0,-60r607,0xm474,-366r0,-209r-338,0v16,102,54,172,114,209r224,0"},"c":{"d":"708,-635r0,60r-73,0r0,374v0,154,-81,231,-244,231v-131,0,-203,-93,-217,-279v-66,3,-104,-22,-103,-81v0,-54,26,-80,80,-80v58,-1,84,36,81,101r343,0r0,-266r-575,0r0,-60r708,0xm171,-309v1,-22,-3,-41,-20,-41v-13,0,-20,7,-20,20v0,16,18,23,40,21xm575,-249r-341,0v12,146,65,219,157,219v137,1,194,-75,184,-219","w":705},"d":{"d":"708,-635r0,60r-73,0r0,303r-401,0v11,161,63,242,157,242v106,0,170,-11,194,-31r39,45v-35,31,-113,46,-233,46v-132,0,-205,-100,-218,-302v-66,3,-103,-23,-102,-81v0,-54,26,-80,80,-80v57,0,83,37,81,100r343,0r0,-242r-575,0r0,-60r708,0xm171,-333v1,-22,-5,-40,-20,-40v-13,0,-20,7,-20,20v0,16,18,22,40,20","w":705},"e":{"d":"534,-303r-178,0v-150,0,-225,50,-225,150v0,82,58,123,175,123v78,0,149,-16,211,-47r27,54v-71,35,-151,53,-238,53v-157,0,-235,-61,-235,-183v0,-97,45,-160,136,-190v-59,-50,-97,-128,-111,-232r-96,0r0,-60r607,0r0,60r-73,0r0,272xm291,-360v56,-5,122,-2,183,-3r0,-212r-317,0v17,108,62,180,134,215"},"f":{"d":"585,-171v0,134,-116,201,-345,201v-113,0,-169,-40,-169,-122v0,-97,53,-146,161,-146v124,0,200,56,227,170v44,-24,65,-58,65,-103v0,-123,-74,-184,-222,-184r-151,0r0,-61r151,0v135,0,210,-53,221,-159r-523,0r0,-60r658,0r0,60r-74,0v-7,92,-47,155,-119,189v80,37,120,109,120,215xm401,-47v-19,-87,-76,-131,-170,-131v-67,0,-100,29,-100,86v0,88,207,62,270,45","w":655},"g":{"d":"131,-242v0,139,63,211,200,212v28,0,42,-36,42,-107r0,-175r-171,0v-47,0,-71,23,-71,70xm708,-635r0,60r-73,0r0,605r-60,0r0,-605r-142,0r0,438v0,111,-33,167,-102,167v-173,1,-259,-90,-260,-272v0,-87,43,-131,131,-131r171,0r0,-202r-373,0r0,-60r708,0","w":705},"h":{"d":"131,-282v-10,143,157,253,272,252v47,0,71,-24,71,-71r0,-474r-474,0r0,-60r607,0r0,60r-73,0r0,474v0,87,-44,131,-131,131v-150,0,-332,-139,-332,-312v0,-84,79,-108,181,-101r0,60v-52,-2,-127,-1,-121,41"},"i":{"d":"108,-869v0,-113,50,-169,150,-169v100,0,150,56,150,169r0,138r-60,0r0,-138v0,-72,-30,-109,-90,-109v-59,0,-89,37,-89,109r0,899r-61,0r0,-899xm0,-575r0,-60r280,0r0,60r-280,0","w":277},"j":{"d":"683,-635r0,60r-73,0r0,605r-61,0r0,-277r-317,0r0,277r-61,0r0,-277v-65,3,-101,-24,-100,-81v0,-54,26,-80,80,-80v58,-1,84,36,81,101r317,0r0,-268r-549,0r0,-60r683,0xm171,-307v1,-22,-3,-41,-20,-41v-13,0,-20,7,-20,20v0,16,18,23,40,21","w":680},"k":{"d":"253,-83v-122,0,-183,-56,-182,-169v1,-113,61,-169,183,-169v69,0,127,32,176,96v25,-66,47,-149,64,-250r-494,0r0,-60r633,0r0,60r-78,0v-22,129,-50,233,-86,311v38,72,67,168,90,289r-60,11v-18,-95,-40,-174,-66,-235v-49,77,-109,116,-180,116xm402,-261v-41,-67,-91,-99,-148,-99v-82,0,-123,36,-123,108v0,72,40,108,122,108v58,0,108,-39,149,-117","w":630},"l":{"d":"809,-635r0,60r-175,0v-4,55,-19,111,-43,165v97,33,145,102,145,208v0,155,-77,232,-232,232r0,-60v114,0,171,-58,171,-172v0,-78,-38,-129,-113,-153v-36,62,-84,124,-146,184r-26,0v-62,-60,-111,-122,-147,-184v-75,23,-112,73,-112,153v0,114,57,172,171,172r0,60v-155,0,-231,-77,-231,-232v0,-107,48,-176,145,-208v-24,-54,-39,-110,-43,-165r-173,0r0,-60r809,0xm233,-575v9,109,66,220,170,331v104,-111,162,-222,171,-331r-341,0","w":806},"m":{"d":"575,-635r133,0r0,60r-73,0r0,605r-60,0r0,-302r-293,0r0,36v0,144,-32,216,-98,216v-76,0,-115,-55,-113,-165v2,-118,43,-158,149,-148v-9,-161,-48,-242,-119,-242r-101,0r0,-60r101,0v105,0,164,100,178,302r296,0r0,-302xm222,-272v-68,-6,-90,5,-91,87v0,70,17,104,53,104v24,0,37,-52,38,-155r0,-36","w":705},"n":{"d":"658,-635r0,60r-300,0r0,156v151,26,226,107,227,241v0,115,-57,184,-171,208r-12,-60v81,-17,122,-66,122,-148v0,-108,-65,-170,-196,-185v-131,15,-197,77,-197,185v0,80,41,130,123,149r-14,58v-113,-26,-169,-95,-169,-207v0,-136,75,-216,226,-241r0,-156r-297,0r0,-60r658,0","w":655},"o":{"d":"-131,-706v0,-47,-24,-70,-71,-70r-201,0v-148,9,-169,-175,-72,-253r43,42v-28,28,-42,55,-42,80v0,47,24,70,71,70r201,0v148,-9,169,175,72,253r-42,-42v28,-28,41,-55,41,-80","w":0},"p":{"d":"0,-635v149,-13,207,54,207,232v0,70,-23,150,-67,241v117,71,228,92,359,41r0,-514r134,0r0,60r-74,0r0,605r-60,0r0,-86v-165,58,-309,6,-438,-86v48,-83,88,-194,85,-261v-6,-138,-33,-184,-146,-172r0,-60","w":630},"q":{"d":"324,-30v138,0,207,-44,207,-132v0,-97,-57,-145,-172,-145r-77,0r0,-60r101,0v93,0,142,-70,148,-208r-531,0r0,-60r658,0r0,60r-67,0v-4,116,-36,194,-93,235v62,32,94,91,94,178v0,128,-90,192,-268,192v-92,0,-174,-37,-245,-110r43,-42v59,61,126,92,202,92","w":655},"r":{"d":"354,30v-135,0,-283,-160,-283,-320v0,-95,50,-143,151,-143r202,0r0,-142r-424,0r0,-60r557,0r0,60r-73,0r0,474v0,87,-43,131,-130,131xm131,-290v0,128,120,259,223,260v46,0,69,-24,69,-71r1,-272r-202,0v-60,0,-91,28,-91,83","w":554},"s":{"d":"222,-272v-68,-5,-90,4,-91,87v0,70,17,104,53,104v24,0,37,-52,38,-155r0,-36xm220,-333v-9,-161,-48,-242,-119,-242r-101,0r0,-60r708,0r0,60r-73,0r0,605r-60,0r0,-302r-293,0r0,36v0,144,-32,216,-98,216v-76,0,-115,-55,-113,-165v2,-118,43,-158,149,-148xm279,-333r296,0r0,-242r-360,0v35,50,56,130,64,242","w":705},"t":{"d":"658,-635r0,60r-658,0r0,-60r658,0xm70,-200v27,-158,137,-232,323,-233r98,0r0,-172r61,0r0,232r-159,0v-148,0,-235,56,-261,169v41,116,110,174,208,174v89,0,154,-19,196,-57r41,44v-53,49,-133,73,-237,73v-131,1,-224,-79,-270,-230","w":655},"u":{"d":"-88,166v-148,72,-284,72,-430,0r28,-54v128,63,245,63,376,0","w":0},"v":{"d":"534,-400r-292,0v-74,0,-110,27,-110,82v0,50,32,76,98,76r304,0r0,61r-245,0v22,101,68,151,140,151r105,0r0,60r-105,0v-109,0,-175,-70,-202,-211v-104,-1,-156,-47,-156,-137v0,-95,57,-142,171,-142r232,0r0,-115r-474,0r0,-60r607,0r0,60r-73,0r0,175"},"w":{"d":"280,-635r0,60r-111,0r0,273r-61,0r0,-273r-108,0r0,-60r280,0","w":277},"x":{"d":"277,-575r-277,0r0,-60r759,0r0,60r-358,0v19,19,37,40,52,61v61,35,131,63,209,82r-14,58v-53,-13,-102,-29,-148,-48v12,34,20,70,21,108r-60,25v-62,-56,-125,-84,-189,-84v-94,0,-141,49,-141,148v0,130,74,195,222,195v123,0,217,-31,282,-92r41,43v-76,73,-184,109,-323,109v-188,0,-282,-85,-282,-255v0,-138,67,-207,201,-208v62,0,122,20,180,60v-8,-33,-22,-65,-41,-95v-73,-43,-118,-79,-134,-107","w":756},"y":{"d":"-352,-877v-58,0,-101,17,-128,53r-48,-36v39,-52,97,-77,176,-77v187,0,281,110,281,332r-60,0v0,-181,-74,-272,-221,-272","w":0},"z":{"d":"683,-635r0,60r-73,0r0,605r-61,0r0,-277r-317,0r0,277r-61,0r0,-277v-65,3,-101,-24,-100,-81v0,-54,26,-80,80,-80v58,-1,84,36,81,101r317,0r0,-268r-549,0r0,-60r683,0xm171,-307v1,-22,-3,-41,-20,-41v-13,0,-20,7,-20,20v0,16,18,23,40,21xm348,49r0,-98r85,0r0,98r-85,0","w":680},"{":{"d":"232,-605v0,106,24,250,-36,303v58,53,36,196,36,302v0,47,23,71,70,71r0,60v-87,0,-131,-44,-131,-131r0,-201v-1,-47,-24,-71,-70,-71r0,-61v47,0,70,-23,70,-70r0,-202v0,-87,44,-131,131,-131r0,61v-47,0,-70,23,-70,70","w":504},"|":{"d":"144,-433r210,0v137,0,205,66,205,199v0,74,-17,132,-53,175v16,21,32,43,49,68r-49,34v-15,-23,-31,-43,-46,-62v-50,33,-120,49,-209,49v-120,0,-180,-43,-180,-130v0,-93,54,-139,163,-139v73,0,149,43,229,130v24,-32,36,-73,36,-125v0,-92,-48,-139,-145,-139r-271,0r0,-202r-83,0r0,-60r633,0r0,60r-489,0r0,142xm419,-68v-67,-74,-129,-110,-185,-110v-69,0,-103,26,-103,78v0,100,234,77,288,32","w":630},"}":{"d":"333,-605r0,202v0,47,23,70,70,70r0,61v-46,0,-70,24,-70,71r0,201v0,87,-44,131,-131,131r0,-60v47,0,70,-24,70,-71r0,-202v2,-87,46,-131,131,-131r0,61v-87,0,-131,-44,-131,-131r0,-202v0,-47,-23,-70,-70,-70r0,-61v87,0,131,44,131,131","w":504},"~":{"d":"76,-786v81,0,121,-58,121,-172r60,0v0,155,-60,232,-181,232v-121,0,-182,-77,-182,-232r61,0v0,114,40,172,121,172xm154,-635r0,60r-154,0r0,-60r154,0","w":151},"\u00a3":{"d":"353,-396r0,61r-121,0r0,103r121,0r0,61r-122,0v-3,57,-20,104,-48,141r220,0r0,60r-302,0r0,-65v42,-27,64,-71,69,-136r-19,0r0,-61r20,0r0,-103r-20,0r0,-61r21,0v8,-160,86,-239,231,-239r0,60v-106,0,-162,60,-170,179r120,0","w":504},"\u00ac":{"d":"-71,131r-134,0v-13,0,-20,7,-20,20v0,13,7,20,20,20r134,0r0,61r-66,0v9,25,31,38,66,40r0,61v-77,0,-120,-34,-129,-101v-57,1,-85,-25,-85,-81v0,-84,72,-84,154,-80r0,-71r60,0r0,131","w":0},"\u00a0":{"w":302}}});
